<?xml version="1.0"?>
<opencv_storage>
<cascade>
  <stageType>BOOST</stageType>
  <featureType>HAAR</featureType>
  <height>20</height>
  <width>60</width>
  <stageParams>
    <boostType>GAB</boostType>
    <minHitRate>9.9900001287460327e-01</minHitRate>
    <maxFalseAlarm>5.0000000000000000e-01</maxFalseAlarm>
    <weightTrimRate>9.4999999999999996e-01</weightTrimRate>
    <maxDepth>1</maxDepth>
    <maxWeakCount>100</maxWeakCount></stageParams>
  <featureParams>
    <maxCatCount>0</maxCatCount>
    <featSize>1</featSize>
    <mode>ALL</mode></featureParams>
  <stageNum>20</stageNum>
  <stages>
    <!-- stage 0 -->
    <_>
      <maxWeakCount>11</maxWeakCount>
      <stageThreshold>-1.1300871372222900e+00</stageThreshold>
      <weakClassifiers>
        <_>
          <internalNodes>
            0 -1 308 -4.5536239631474018e-03</internalNodes>
          <leafValues>
            6.4249002933502197e-01 -7.5150299072265625e-01</leafValues></_>
        <_>
          <internalNodes>
            0 -1 202 3.1464977655559778e-04</internalNodes>
          <leafValues>
            2.6256316900253296e-01 -7.9395967721939087e-01</leafValues></_>
        <_>
          <internalNodes>
            0 -1 407 1.8900353461503983e-04</internalNodes>
          <leafValues>
            1.8788328766822815e-01 -7.7943587303161621e-01</leafValues></_>
        <_>
          <internalNodes>
            0 -1 411 6.2165834242478013e-04</internalNodes>
          <leafValues>
            1.1705829203128815e-01 -9.3493795394897461e-01</leafValues></_>
        <_>
          <internalNodes>
            0 -1 312 2.2757209371775389e-03</internalNodes>
          <leafValues>
            -3.2982864975929260e-01 4.5769348740577698e-01</leafValues></_>
        <_>
          <internalNodes>
            0 -1 155 -1.3593267067335546e-04</internalNodes>
          <leafValues>
            2.6429796218872070e-01 -5.4863643646240234e-01</leafValues></_>
        <_>
          <internalNodes>
            0 -1 214 7.0978165604174137e-04</internalNodes>
          <leafValues>
            -4.3652722239494324e-01 3.3026182651519775e-01</leafValues></_>
        <_>
          <internalNodes>
            0 -1 95 2.9621928930282593e-02</internalNodes>
          <leafValues>
            1.8396012485027313e-01 -8.1016826629638672e-01</leafValues></_>
        <_>
          <internalNodes>
            0 -1 229 7.4650146998465061e-03</internalNodes>
          <leafValues>
            -2.9245132207870483e-01 5.0647509098052979e-01</leafValues></_>
        <_>
          <internalNodes>
            0 -1 385 -3.2568399910815060e-04</internalNodes>
          <leafValues>
            -7.1579813957214355e-01 2.0546448230743408e-01</leafValues></_>
        <_>
          <internalNodes>
            0 -1 181 1.2679522857069969e-02</internalNodes>
          <leafValues>
            -2.8322306275367737e-01 5.4093086719512939e-01</leafValues></_></weakClassifiers></_>
    <!-- stage 1 -->
    <_>
      <maxWeakCount>17</maxWeakCount>
      <stageThreshold>-1.0943707227706909e+00</stageThreshold>
      <weakClassifiers>
        <_>
          <internalNodes>
            0 -1 413 4.0835910476744175e-04</internalNodes>
          <leafValues>
            4.6285140514373779e-01 -6.6666668653488159e-01</leafValues></_>
        <_>
          <internalNodes>
            0 -1 24 1.0930554941296577e-02</internalNodes>
          <leafValues>
            2.5428766012191772e-01 -5.5915617942810059e-01</leafValues></_>
        <_>
          <internalNodes>
            0 -1 435 8.8306202087551355e-04</internalNodes>
          <leafValues>
            1.4430029690265656e-01 -7.9781109094619751e-01</leafValues></_>
        <_>
          <internalNodes>
            0 -1 482 5.4039014503359795e-04</internalNodes>
          <leafValues>
            1.4717528223991394e-01 -7.7032083272933960e-01</leafValues></_>
        <_>
          <internalNodes>
            0 -1 335 9.5919184386730194e-03</internalNodes>
          <leafValues>
            -3.3879259228706360e-01 3.2211947441101074e-01</leafValues></_>
        <_>
          <internalNodes>
            0 -1 316 4.4360387255437672e-04</internalNodes>
          <leafValues>
            2.0935089886188507e-01 -5.4567736387252808e-01</leafValues></_>
        <_>
          <internalNodes>
            0 -1 313 1.9501892384141684e-03</internalNodes>
          <leafValues>
            -3.1311190128326416e-01 3.3712807297706604e-01</leafValues></_>
        <_>
          <internalNodes>
            0 -1 290 -2.2583968529943377e-05</internalNodes>
          <leafValues>
            1.5742000937461853e-01 -6.3279938697814941e-01</leafValues></_>
        <_>
          <internalNodes>
            0 -1 227 1.3185775838792324e-02</internalNodes>
          <leafValues>
            -1.7396877706050873e-01 6.8734413385391235e-01</leafValues></_>
        <_>
          <internalNodes>
            0 -1 267 2.8986602555960417e-03</internalNodes>
          <leafValues>
            -1.0561313480138779e-01 8.1498247385025024e-01</leafValues></_>
        <_>
          <internalNodes>
            0 -1 201 4.7496967017650604e-02</internalNodes>
          <leafValues>
            1.2073505669832230e-01 -8.7477779388427734e-01</leafValues></_>
        <_>
          <internalNodes>
            0 -1 142 -9.4009310007095337e-02</internalNodes>
          <leafValues>
            -8.2978862524032593e-01 1.0046128928661346e-01</leafValues></_>
        <_>
          <internalNodes>
            0 -1 174 2.5049424730241299e-03</internalNodes>
          <leafValues>
            -2.3687863349914551e-01 4.2496189475059509e-01</leafValues></_>
        <_>
          <internalNodes>
            0 -1 412 6.5705354791134596e-04</internalNodes>
          <leafValues>
            1.1625314503908157e-01 -8.5631716251373291e-01</leafValues></_>
        <_>
          <internalNodes>
            0 -1 521 5.0126552581787109e-02</internalNodes>
          <leafValues>
            8.4743879735469818e-02 -7.2735583782196045e-01</leafValues></_>
        <_>
          <internalNodes>
            0 -1 500 2.0452449098229408e-03</internalNodes>
          <leafValues>
            -8.0615526437759399e-01 9.4496235251426697e-02</leafValues></_>
        <_>
          <internalNodes>
            0 -1 259 6.0539820697158575e-04</internalNodes>
          <leafValues>
            -2.8983619809150696e-01 3.2212102413177490e-01</leafValues></_></weakClassifiers></_>
    <!-- stage 2 -->
    <_>
      <maxWeakCount>18</maxWeakCount>
      <stageThreshold>-9.7485327720642090e-01</stageThreshold>
      <weakClassifiers>
        <_>
          <internalNodes>
            0 -1 458 6.1762833502143621e-04</internalNodes>
          <leafValues>
            4.5171025395393372e-01 -5.6488549709320068e-01</leafValues></_>
        <_>
          <internalNodes>
            0 -1 204 1.0127165913581848e-01</internalNodes>
          <leafValues>
            -1.4774835109710693e-01 5.7890230417251587e-01</leafValues></_>
        <_>
          <internalNodes>
            0 -1 430 1.7032249888870865e-04</internalNodes>
          <leafValues>
            1.7935752868652344e-01 -5.9725451469421387e-01</leafValues></_>
        <_>
          <internalNodes>
            0 -1 52 4.6265110373497009e-02</internalNodes>
          <leafValues>
            1.6090357303619385e-01 -6.2692517042160034e-01</leafValues></_>
        <_>
          <internalNodes>
            0 -1 312 9.3540700618177652e-04</internalNodes>
          <leafValues>
            -3.5676187276840210e-01 2.8689736127853394e-01</leafValues></_>
        <_>
          <internalNodes>
            0 -1 222 -1.6363257600460202e-05</internalNodes>
          <leafValues>
            1.4381660521030426e-01 -6.1982196569442749e-01</leafValues></_>
        <_>
          <internalNodes>
            0 -1 328 1.5289329458028078e-03</internalNodes>
          <leafValues>
            -2.1566163003444672e-01 4.5069053769111633e-01</leafValues></_>
        <_>
          <internalNodes>
            0 -1 36 -7.7053792774677277e-02</internalNodes>
          <leafValues>
            6.5368682146072388e-01 -1.6550540924072266e-01</leafValues></_>
        <_>
          <internalNodes>
            0 -1 260 -8.8092713849619031e-04</internalNodes>
          <leafValues>
            -6.8701374530792236e-01 1.8140515685081482e-01</leafValues></_>
        <_>
          <internalNodes>
            0 -1 27 -1.2861227989196777e-01</internalNodes>
          <leafValues>
            7.9348945617675781e-01 -1.5658670663833618e-01</leafValues></_>
        <_>
          <internalNodes>
            0 -1 260 8.3864724729210138e-04</internalNodes>
          <leafValues>
            1.5594281256198883e-01 -7.6077377796173096e-01</leafValues></_>
        <_>
          <internalNodes>
            0 -1 562 -3.1976483762264252e-02</internalNodes>
          <leafValues>
            5.9840762615203857e-01 -1.7575685679912567e-01</leafValues></_>
        <_>
          <internalNodes>
            0 -1 92 2.3045471310615540e-01</internalNodes>
          <leafValues>
            1.1717245727777481e-01 -8.8322716951370239e-01</leafValues></_>
        <_>
          <internalNodes>
            0 -1 63 -1.4209933578968048e-01</internalNodes>
          <leafValues>
            -6.1878764629364014e-01 1.2266562879085541e-01</leafValues></_>
        <_>
          <internalNodes>
            0 -1 462 3.4933863207697868e-04</internalNodes>
          <leafValues>
            8.7598636746406555e-02 -8.4557563066482544e-01</leafValues></_>
        <_>
          <internalNodes>
            0 -1 15 5.5946361273527145e-02</internalNodes>
          <leafValues>
            -1.3690617680549622e-01 6.1449843645095825e-01</leafValues></_>
        <_>
          <internalNodes>
            0 -1 151 5.4066092707216740e-04</internalNodes>
          <leafValues>
            -2.1462640166282654e-01 3.4232118725776672e-01</leafValues></_>
        <_>
          <internalNodes>
            0 -1 434 4.4743384933099151e-04</internalNodes>
          <leafValues>
            9.1240875422954559e-02 -7.6827543973922729e-01</leafValues></_></weakClassifiers></_>
    <!-- stage 3 -->
    <_>
      <maxWeakCount>23</maxWeakCount>
      <stageThreshold>-1.0974555015563965e+00</stageThreshold>
      <weakClassifiers>
        <_>
          <internalNodes>
            0 -1 120 1.1592390388250351e-01</internalNodes>
          <leafValues>
            4.0415486693382263e-01 -8.0303031206130981e-01</leafValues></_>
        <_>
          <internalNodes>
            0 -1 193 2.0656751468777657e-02</internalNodes>
          <leafValues>
            -1.7462106049060822e-01 5.7654076814651489e-01</leafValues></_>
        <_>
          <internalNodes>
            0 -1 233 7.8391239047050476e-02</internalNodes>
          <leafValues>
            -1.5839736163616180e-01 6.1579114198684692e-01</leafValues></_>
        <_>
          <internalNodes>
            0 -1 315 4.1596178198233247e-04</internalNodes>
          <leafValues>
            1.6171550750732422e-01 -6.6622018814086914e-01</leafValues></_>
        <_>
          <internalNodes>
            0 -1 366 6.3499356620013714e-03</internalNodes>
          <leafValues>
            -1.9612795114517212e-01 4.9244487285614014e-01</leafValues></_>
        <_>
          <internalNodes>
            0 -1 203 7.2376281023025513e-03</internalNodes>
          <leafValues>
            -2.3897869884967804e-01 3.6442241072654724e-01</leafValues></_>
        <_>
          <internalNodes>
            0 -1 280 6.9945044815540314e-03</internalNodes>
          <leafValues>
            -1.6412985324859619e-01 5.2253717184066772e-01</leafValues></_>
        <_>
          <internalNodes>
            0 -1 457 -8.2684593508020043e-04</internalNodes>
          <leafValues>
            -7.6578861474990845e-01 1.2991024553775787e-01</leafValues></_>
        <_>
          <internalNodes>
            0 -1 485 9.9138636142015457e-03</internalNodes>
          <leafValues>
            -6.6456991434097290e-01 1.2727966904640198e-01</leafValues></_>
        <_>
          <internalNodes>
            0 -1 436 4.3572837603278458e-04</internalNodes>
          <leafValues>
            8.5281059145927429e-02 -8.0011105537414551e-01</leafValues></_>
        <_>
          <internalNodes>
            0 -1 353 1.9363818864803761e-05</internalNodes>
          <leafValues>
            1.4543506503105164e-01 -4.9940338730812073e-01</leafValues></_>
        <_>
          <internalNodes>
            0 -1 475 3.8957528886385262e-05</internalNodes>
          <leafValues>
            -3.5031646490097046e-01 2.3734876513481140e-01</leafValues></_>
        <_>
          <internalNodes>
            0 -1 361 5.8106274809688330e-04</internalNodes>
          <leafValues>
            -1.7879126965999603e-01 4.3906891345977783e-01</leafValues></_>
        <_>
          <internalNodes>
            0 -1 436 -2.9008626006543636e-04</internalNodes>
          <leafValues>
            -6.8094527721405029e-01 1.2089440971612930e-01</leafValues></_>
        <_>
          <internalNodes>
            0 -1 362 -8.0766185419633985e-04</internalNodes>
          <leafValues>
            4.7433602809906006e-01 -1.7219552397727966e-01</leafValues></_>
        <_>
          <internalNodes>
            0 -1 74 1.9684967398643494e-01</internalNodes>
          <leafValues>
            1.1440826952457428e-01 -6.3351374864578247e-01</leafValues></_>
        <_>
          <internalNodes>
            0 -1 146 2.5534301996231079e-02</internalNodes>
          <leafValues>
            6.9643765687942505e-02 -8.6750185489654541e-01</leafValues></_>
        <_>
          <internalNodes>
            0 -1 40 1.7731399834156036e-01</internalNodes>
          <leafValues>
            -1.1320249736309052e-01 6.9323199987411499e-01</leafValues></_>
        <_>
          <internalNodes>
            0 -1 64 -1.5741910319775343e-03</internalNodes>
          <leafValues>
            3.5094094276428223e-01 -1.9754429161548615e-01</leafValues></_>
        <_>
          <internalNodes>
            0 -1 274 -7.3072882369160652e-03</internalNodes>
          <leafValues>
            5.0659430027008057e-01 -1.3367722928524017e-01</leafValues></_>
        <_>
          <internalNodes>
            0 -1 141 -4.0860086679458618e-02</internalNodes>
          <leafValues>
            -6.6950696706771851e-01 1.2819728255271912e-01</leafValues></_>
        <_>
          <internalNodes>
            0 -1 71 7.0819050073623657e-02</internalNodes>
          <leafValues>
            -1.2897820770740509e-01 7.1219247579574585e-01</leafValues></_>
        <_>
          <internalNodes>
            0 -1 363 1.1513072531670332e-03</internalNodes>
          <leafValues>
            -2.1715843677520752e-01 3.6215159296989441e-01</leafValues></_></weakClassifiers></_>
    <!-- stage 4 -->
    <_>
      <maxWeakCount>26</maxWeakCount>
      <stageThreshold>-1.0363371372222900e+00</stageThreshold>
      <weakClassifiers>
        <_>
          <internalNodes>
            0 -1 177 -4.5794968173140660e-05</internalNodes>
          <leafValues>
            4.3434342741966248e-01 -4.0740740299224854e-01</leafValues></_>
        <_>
          <internalNodes>
            0 -1 213 6.7586712539196014e-03</internalNodes>
          <leafValues>
            -2.1748492121696472e-01 3.7045103311538696e-01</leafValues></_>
        <_>
          <internalNodes>
            0 -1 432 3.6449223989620805e-04</internalNodes>
          <leafValues>
            1.3361126184463501e-01 -5.9617966413497925e-01</leafValues></_>
        <_>
          <internalNodes>
            0 -1 226 -1.4202347025275230e-02</internalNodes>
          <leafValues>
            2.9724141955375671e-01 -2.6045432686805725e-01</leafValues></_>
        <_>
          <internalNodes>
            0 -1 157 4.6721429680474102e-04</internalNodes>
          <leafValues>
            1.6062347590923309e-01 -4.9980995059013367e-01</leafValues></_>
        <_>
          <internalNodes>
            0 -1 334 5.6830560788512230e-03</internalNodes>
          <leafValues>
            -2.2110593318939209e-01 4.6793514490127563e-01</leafValues></_>
        <_>
          <internalNodes>
            0 -1 378 1.1550677008926868e-03</internalNodes>
          <leafValues>
            -2.8296086192131042e-01 3.4905749559402466e-01</leafValues></_>
        <_>
          <internalNodes>
            0 -1 428 3.6412852932699025e-04</internalNodes>
          <leafValues>
            1.9880764186382294e-01 -4.1856983304023743e-01</leafValues></_>
        <_>
          <internalNodes>
            0 -1 275 1.7498046159744263e-02</internalNodes>
          <leafValues>
            1.3359521329402924e-01 -6.2632346153259277e-01</leafValues></_>
        <_>
          <internalNodes>
            0 -1 330 3.2462336122989655e-02</internalNodes>
          <leafValues>
            -1.4557246863842010e-01 5.7959043979644775e-01</leafValues></_>
        <_>
          <internalNodes>
            0 -1 486 2.2490501869469881e-03</internalNodes>
          <leafValues>
            -7.8849434852600098e-01 9.3922123312950134e-02</leafValues></_>
        <_>
          <internalNodes>
            0 -1 338 6.7257718183100224e-04</internalNodes>
          <leafValues>
            -2.6818722486495972e-01 2.4540501832962036e-01</leafValues></_>
        <_>
          <internalNodes>
            0 -1 344 1.6252422938123345e-04</internalNodes>
          <leafValues>
            1.4966206252574921e-01 -5.1648354530334473e-01</leafValues></_>
        <_>
          <internalNodes>
            0 -1 83 -3.5665817558765411e-02</internalNodes>
          <leafValues>
            5.3990697860717773e-01 -1.4229553937911987e-01</leafValues></_>
        <_>
          <internalNodes>
            0 -1 556 -5.5037833750247955e-02</internalNodes>
          <leafValues>
            4.9002060294151306e-01 -1.4952792227268219e-01</leafValues></_>
        <_>
          <internalNodes>
            0 -1 122 7.7591068111360073e-03</internalNodes>
          <leafValues>
            -1.5542931854724884e-01 4.5497030019760132e-01</leafValues></_>
        <_>
          <internalNodes>
            0 -1 82 -2.2371649742126465e-02</internalNodes>
          <leafValues>
            -7.3419433832168579e-01 9.2616751790046692e-02</leafValues></_>
        <_>
          <internalNodes>
            0 -1 301 1.4460247475653887e-03</internalNodes>
          <leafValues>
            -1.7956720292568207e-01 4.0996831655502319e-01</leafValues></_>
        <_>
          <internalNodes>
            0 -1 550 -6.0862151440232992e-04</internalNodes>
          <leafValues>
            -4.6558016538619995e-01 1.5097919106483459e-01</leafValues></_>
        <_>
          <internalNodes>
            0 -1 266 -3.4489119425415993e-03</internalNodes>
          <leafValues>
            6.6444796323776245e-01 -1.1010511964559555e-01</leafValues></_>
        <_>
          <internalNodes>
            0 -1 281 -7.8397272154688835e-03</internalNodes>
          <leafValues>
            5.7290238142013550e-01 -1.0726991295814514e-01</leafValues></_>
        <_>
          <internalNodes>
            0 -1 478 3.1328215845860541e-04</internalNodes>
          <leafValues>
            1.6221211850643158e-01 -4.9409013986587524e-01</leafValues></_>
        <_>
          <internalNodes>
            0 -1 23 2.0989559590816498e-02</internalNodes>
          <leafValues>
            -1.0930273681879044e-01 6.6913437843322754e-01</leafValues></_>
        <_>
          <internalNodes>
            0 -1 209 5.6843324564397335e-03</internalNodes>
          <leafValues>
            -1.3877570629119873e-01 5.0697934627532959e-01</leafValues></_>
        <_>
          <internalNodes>
            0 -1 514 7.2467897552996874e-05</internalNodes>
          <leafValues>
            1.2834607064723969e-01 -5.2949255704879761e-01</leafValues></_>
        <_>
          <internalNodes>
            0 -1 469 3.9059673435986042e-03</internalNodes>
          <leafValues>
            -2.2000961005687714e-01 3.5788452625274658e-01</leafValues></_></weakClassifiers></_>
    <!-- stage 5 -->
    <_>
      <maxWeakCount>26</maxWeakCount>
      <stageThreshold>-9.4858944416046143e-01</stageThreshold>
      <weakClassifiers>
        <_>
          <internalNodes>
            0 -1 152 7.6311826705932617e-02</internalNodes>
          <leafValues>
            3.9867424964904785e-01 -6.6666668653488159e-01</leafValues></_>
        <_>
          <internalNodes>
            0 -1 195 1.6081811860203743e-02</internalNodes>
          <leafValues>
            -1.4988708496093750e-01 4.8612540960311890e-01</leafValues></_>
        <_>
          <internalNodes>
            0 -1 199 -2.7312122285366058e-02</internalNodes>
          <leafValues>
            -7.4090343713760376e-01 8.0268599092960358e-02</leafValues></_>
        <_>
          <internalNodes>
            0 -1 305 3.3856928348541260e-03</internalNodes>
          <leafValues>
            -1.3416241109371185e-01 5.4546046257019043e-01</leafValues></_>
        <_>
          <internalNodes>
            0 -1 9 -3.6606913805007935e-01</internalNodes>
          <leafValues>
            3.9091333746910095e-01 -2.0197319984436035e-01</leafValues></_>
        <_>
          <internalNodes>
            0 -1 443 -2.2329851053655148e-03</internalNodes>
          <leafValues>
            4.9689295887947083e-01 -1.3996860384941101e-01</leafValues></_>
        <_>
          <internalNodes>
            0 -1 504 2.4251005379483104e-04</internalNodes>
          <leafValues>
            1.2830619513988495e-01 -5.9263420104980469e-01</leafValues></_>
        <_>
          <internalNodes>
            0 -1 225 2.0658783614635468e-04</internalNodes>
          <leafValues>
            8.1687882542610168e-02 -6.7351472377777100e-01</leafValues></_>
        <_>
          <internalNodes>
            0 -1 553 -5.7082076091319323e-04</internalNodes>
          <leafValues>
            2.3143745958805084e-01 -2.8464227914810181e-01</leafValues></_>
        <_>
          <internalNodes>
            0 -1 337 4.5607969514094293e-04</internalNodes>
          <leafValues>
            -2.5028935074806213e-01 2.5175037980079651e-01</leafValues></_>
        <_>
          <internalNodes>
            0 -1 283 4.0217218338511884e-04</internalNodes>
          <leafValues>
            1.7467233538627625e-01 -4.8538550734519958e-01</leafValues></_>
        <_>
          <internalNodes>
            0 -1 443 2.8556487523019314e-03</internalNodes>
          <leafValues>
            -1.1877182871103287e-01 5.4134005308151245e-01</leafValues></_>
        <_>
          <internalNodes>
            0 -1 187 2.1119411103427410e-03</internalNodes>
          <leafValues>
            -2.0112200081348419e-01 2.9223611950874329e-01</leafValues></_>
        <_>
          <internalNodes>
            0 -1 123 7.6333608012646437e-04</internalNodes>
          <leafValues>
            -2.2505892813205719e-01 2.7643084526062012e-01</leafValues></_>
        <_>
          <internalNodes>
            0 -1 409 2.9674946563318372e-04</internalNodes>
          <leafValues>
            1.2174293398857117e-01 -5.7108509540557861e-01</leafValues></_>
        <_>
          <internalNodes>
            0 -1 103 -5.5153675377368927e-02</internalNodes>
          <leafValues>
            6.1383354663848877e-01 -1.1636938154697418e-01</leafValues></_>
        <_>
          <internalNodes>
            0 -1 54 5.5680319666862488e-02</internalNodes>
          <leafValues>
            -1.1989121884107590e-01 5.8099675178527832e-01</leafValues></_>
        <_>
          <internalNodes>
            0 -1 167 -4.9276188015937805e-02</internalNodes>
          <leafValues>
            -6.5436005592346191e-01 1.1033411324024200e-01</leafValues></_>
        <_>
          <internalNodes>
            0 -1 60 1.9412955734878778e-03</internalNodes>
          <leafValues>
            -1.7841090261936188e-01 4.0901130437850952e-01</leafValues></_>
        <_>
          <internalNodes>
            0 -1 87 -5.0537191331386566e-02</internalNodes>
          <leafValues>
            -5.8205610513687134e-01 1.2985020875930786e-01</leafValues></_>
        <_>
          <internalNodes>
            0 -1 519 1.2067387811839581e-02</internalNodes>
          <leafValues>
            -2.3993577063083649e-01 2.7810838818550110e-01</leafValues></_>
        <_>
          <internalNodes>
            0 -1 272 -1.7918385565280914e-03</internalNodes>
          <leafValues>
            4.9591636657714844e-01 -1.0940378159284592e-01</leafValues></_>
        <_>
          <internalNodes>
            0 -1 548 -1.5086587518453598e-04</internalNodes>
          <leafValues>
            -3.9587798714637756e-01 1.5488637983798981e-01</leafValues></_>
        <_>
          <internalNodes>
            0 -1 39 1.4698073267936707e-01</internalNodes>
          <leafValues>
            -7.3653109371662140e-02 9.0222114324569702e-01</leafValues></_>
        <_>
          <internalNodes>
            0 -1 402 2.4412022903561592e-03</internalNodes>
          <leafValues>
            -1.7006382346153259e-01 3.4060880541801453e-01</leafValues></_>
        <_>
          <internalNodes>
            0 -1 511 -1.6831492539495230e-03</internalNodes>
          <leafValues>
            -5.6338548660278320e-01 1.3085818290710449e-01</leafValues></_></weakClassifiers></_>
    <!-- stage 6 -->
    <_>
      <maxWeakCount>35</maxWeakCount>
      <stageThreshold>-1.1554126739501953e+00</stageThreshold>
      <weakClassifiers>
        <_>
          <internalNodes>
            0 -1 80 1.0055302828550339e-01</internalNodes>
          <leafValues>
            3.9052978157997131e-01 -7.0940172672271729e-01</leafValues></_>
        <_>
          <internalNodes>
            0 -1 374 -1.0062882676720619e-02</internalNodes>
          <leafValues>
            5.6932222843170166e-01 -1.2905050814151764e-01</leafValues></_>
        <_>
          <internalNodes>
            0 -1 297 -7.0867128670215607e-03</internalNodes>
          <leafValues>
            2.8844493627548218e-01 -2.3832371830940247e-01</leafValues></_>
        <_>
          <internalNodes>
            0 -1 0 4.5144204050302505e-03</internalNodes>
          <leafValues>
            -1.7703321576118469e-01 4.7595253586769104e-01</leafValues></_>
        <_>
          <internalNodes>
            0 -1 232 7.5411815196275711e-03</internalNodes>
          <leafValues>
            -8.0544762313365936e-02 5.4185026884078979e-01</leafValues></_>
        <_>
          <internalNodes>
            0 -1 244 -6.2181369867175817e-04</internalNodes>
          <leafValues>
            -4.5283284783363342e-01 1.3823980093002319e-01</leafValues></_>
        <_>
          <internalNodes>
            0 -1 257 -4.7470577992498875e-03</internalNodes>
          <leafValues>
            6.4038580656051636e-01 -1.2446003407239914e-01</leafValues></_>
        <_>
          <internalNodes>
            0 -1 239 1.0792596731334925e-03</internalNodes>
          <leafValues>
            -2.9959055781364441e-01 2.4769538640975952e-01</leafValues></_>
        <_>
          <internalNodes>
            0 -1 527 3.0739849898964167e-03</internalNodes>
          <leafValues>
            9.3725480139255524e-02 -7.1155238151550293e-01</leafValues></_>
        <_>
          <internalNodes>
            0 -1 269 9.4230368733406067e-02</internalNodes>
          <leafValues>
            6.4811408519744873e-02 -8.3148837089538574e-01</leafValues></_>
        <_>
          <internalNodes>
            0 -1 107 3.2479375600814819e-02</internalNodes>
          <leafValues>
            8.5474058985710144e-02 -6.3692295551300049e-01</leafValues></_>
        <_>
          <internalNodes>
            0 -1 320 3.4322412102483213e-04</internalNodes>
          <leafValues>
            9.2473827302455902e-02 -6.8384742736816406e-01</leafValues></_>
        <_>
          <internalNodes>
            0 -1 170 9.0985291171818972e-04</internalNodes>
          <leafValues>
            -2.2166730463504791e-01 2.8686046600341797e-01</leafValues></_>
        <_>
          <internalNodes>
            0 -1 108 2.8786514885723591e-03</internalNodes>
          <leafValues>
            -2.3869183659553528e-01 3.6980742216110229e-01</leafValues></_>
        <_>
          <internalNodes>
            0 -1 97 -3.5229906439781189e-02</internalNodes>
          <leafValues>
            7.6198124885559082e-01 -7.1036696434020996e-02</leafValues></_>
        <_>
          <internalNodes>
            0 -1 497 1.8303401884622872e-04</internalNodes>
          <leafValues>
            8.7328143417835236e-02 -7.9906159639358521e-01</leafValues></_>
        <_>
          <internalNodes>
            0 -1 496 1.7175762332044542e-04</internalNodes>
          <leafValues>
            8.9772842824459076e-02 -5.7088327407836914e-01</leafValues></_>
        <_>
          <internalNodes>
            0 -1 394 4.8614013940095901e-04</internalNodes>
          <leafValues>
            -1.5182979404926300e-01 4.2725008726119995e-01</leafValues></_>
        <_>
          <internalNodes>
            0 -1 91 -2.9702056199312210e-03</internalNodes>
          <leafValues>
            5.1383328437805176e-01 -1.1140071600675583e-01</leafValues></_>
        <_>
          <internalNodes>
            0 -1 530 -3.5236664116382599e-02</internalNodes>
          <leafValues>
            3.9452812075614929e-01 -1.3780519366264343e-01</leafValues></_>
        <_>
          <internalNodes>
            0 -1 444 9.0612009167671204e-02</internalNodes>
          <leafValues>
            -1.2895359098911285e-01 5.4622191190719604e-01</leafValues></_>
        <_>
          <internalNodes>
            0 -1 49 6.6148437559604645e-02</internalNodes>
          <leafValues>
            9.9311970174312592e-02 -6.2379395961761475e-01</leafValues></_>
        <_>
          <internalNodes>
            0 -1 313 1.7973408102989197e-03</internalNodes>
          <leafValues>
            -2.5438502430915833e-01 2.4839422106742859e-01</leafValues></_>
        <_>
          <internalNodes>
            0 -1 288 -6.2636397778987885e-03</internalNodes>
          <leafValues>
            5.9617167711257935e-01 -1.2476161867380142e-01</leafValues></_>
        <_>
          <internalNodes>
            0 -1 401 -2.0592366345226765e-03</internalNodes>
          <leafValues>
            -4.6187764406204224e-01 1.4230065047740936e-01</leafValues></_>
        <_>
          <internalNodes>
            0 -1 89 -3.4389331936836243e-02</internalNodes>
          <leafValues>
            -4.4597986340522766e-01 1.2886486947536469e-01</leafValues></_>
        <_>
          <internalNodes>
            0 -1 503 1.2795109068974853e-04</internalNodes>
          <leafValues>
            1.3054502010345459e-01 -4.0541148185729980e-01</leafValues></_>
        <_>
          <internalNodes>
            0 -1 465 1.7444386321585625e-04</internalNodes>
          <leafValues>
            -1.6904702782630920e-01 3.0110752582550049e-01</leafValues></_>
        <_>
          <internalNodes>
            0 -1 5 -2.9417726397514343e-01</internalNodes>
          <leafValues>
            6.7488586902618408e-01 -7.2217158973217010e-02</leafValues></_>
        <_>
          <internalNodes>
            0 -1 21 1.3869236409664154e-01</internalNodes>
          <leafValues>
            -5.8241907507181168e-02 7.9866337776184082e-01</leafValues></_>
        <_>
          <internalNodes>
            0 -1 446 1.0414938442409039e-02</internalNodes>
          <leafValues>
            -8.2261487841606140e-02 5.6038796901702881e-01</leafValues></_>
        <_>
          <internalNodes>
            0 -1 340 6.2816143035888672e-03</internalNodes>
          <leafValues>
            -1.4784035086631775e-01 4.0482908487319946e-01</leafValues></_>
        <_>
          <internalNodes>
            0 -1 160 8.7569933384656906e-04</internalNodes>
          <leafValues>
            1.2283145636320114e-01 -5.3232312202453613e-01</leafValues></_>
        <_>
          <internalNodes>
            0 -1 134 5.4003125987946987e-03</internalNodes>
          <leafValues>
            9.1713368892669678e-02 -5.7896071672439575e-01</leafValues></_>
        <_>
          <internalNodes>
            0 -1 48 -2.4126525968313217e-03</internalNodes>
          <leafValues>
            3.6290264129638672e-01 -1.7071521282196045e-01</leafValues></_></weakClassifiers></_>
    <!-- stage 7 -->
    <_>
      <maxWeakCount>29</maxWeakCount>
      <stageThreshold>-8.8929259777069092e-01</stageThreshold>
      <weakClassifiers>
        <_>
          <internalNodes>
            0 -1 217 1.5659960918128490e-03</internalNodes>
          <leafValues>
            3.2992035150527954e-02 5.2589350938796997e-01</leafValues></_>
        <_>
          <internalNodes>
            0 -1 547 -3.7863119505345821e-03</internalNodes>
          <leafValues>
            3.4497097134590149e-01 -1.5126238763332367e-01</leafValues></_>
        <_>
          <internalNodes>
            0 -1 62 -3.2328143715858459e-02</internalNodes>
          <leafValues>
            5.6087511777877808e-01 -9.2857211828231812e-02</leafValues></_>
        <_>
          <internalNodes>
            0 -1 468 -7.0511981844902039e-02</internalNodes>
          <leafValues>
            5.4423522949218750e-01 -1.2232604622840881e-01</leafValues></_>
        <_>
          <internalNodes>
            0 -1 313 2.7153089176863432e-03</internalNodes>
          <leafValues>
            -2.2484005987644196e-01 2.7315494418144226e-01</leafValues></_>
        <_>
          <internalNodes>
            0 -1 282 -1.1180767789483070e-02</internalNodes>
          <leafValues>
            5.1839095354080200e-01 -1.2775540351867676e-01</leafValues></_>
        <_>
          <internalNodes>
            0 -1 349 2.5730085326358676e-04</internalNodes>
          <leafValues>
            1.2195653468370438e-01 -5.5769753456115723e-01</leafValues></_>
        <_>
          <internalNodes>
            0 -1 1 2.2300952672958374e-01</internalNodes>
          <leafValues>
            -1.2051837146282196e-01 5.9369307756423950e-01</leafValues></_>
        <_>
          <internalNodes>
            0 -1 317 -8.6343748262152076e-04</internalNodes>
          <leafValues>
            -6.0016947984695435e-01 1.1048318445682526e-01</leafValues></_>
        <_>
          <internalNodes>
            0 -1 563 5.0833262503147125e-03</internalNodes>
          <leafValues>
            -1.4669439196586609e-01 3.9032071828842163e-01</leafValues></_>
        <_>
          <internalNodes>
            0 -1 70 5.4976914077997208e-02</internalNodes>
          <leafValues>
            6.8909101188182831e-02 -8.4637248516082764e-01</leafValues></_>
        <_>
          <internalNodes>
            0 -1 173 7.4085581582039595e-04</internalNodes>
          <leafValues>
            -2.0881296694278717e-01 2.8863030672073364e-01</leafValues></_>
        <_>
          <internalNodes>
            0 -1 86 4.2387321591377258e-03</internalNodes>
          <leafValues>
            -2.0927639305591583e-01 3.0371508002281189e-01</leafValues></_>
        <_>
          <internalNodes>
            0 -1 138 -6.4250305294990540e-02</internalNodes>
          <leafValues>
            -7.6692986488342285e-01 8.6109831929206848e-02</leafValues></_>
        <_>
          <internalNodes>
            0 -1 393 1.0845073265954852e-03</internalNodes>
          <leafValues>
            -2.3894368112087250e-01 2.4078457057476044e-01</leafValues></_>
        <_>
          <internalNodes>
            0 -1 264 -5.6702559813857079e-03</internalNodes>
          <leafValues>
            5.8657765388488770e-01 -9.3193851411342621e-02</leafValues></_>
        <_>
          <internalNodes>
            0 -1 124 3.0606165528297424e-03</internalNodes>
          <leafValues>
            -1.6772860288619995e-01 3.2969820499420166e-01</leafValues></_>
        <_>
          <internalNodes>
            0 -1 329 -3.1925685703754425e-02</internalNodes>
          <leafValues>
            -6.8472743034362793e-01 8.3161301910877228e-02</leafValues></_>
        <_>
          <internalNodes>
            0 -1 221 7.0680788485333323e-04</internalNodes>
          <leafValues>
            9.5910355448722839e-02 -4.9717330932617188e-01</leafValues></_>
        <_>
          <internalNodes>
            0 -1 96 -2.8851363807916641e-02</internalNodes>
          <leafValues>
            8.0987679958343506e-01 -6.9520659744739532e-02</leafValues></_>
        <_>
          <internalNodes>
            0 -1 194 1.2833660468459129e-02</internalNodes>
          <leafValues>
            8.5925988852977753e-02 -8.5744076967239380e-01</leafValues></_>
        <_>
          <internalNodes>
            0 -1 350 2.2289853077381849e-03</internalNodes>
          <leafValues>
            -1.3329757750034332e-01 4.1044828295707703e-01</leafValues></_>
        <_>
          <internalNodes>
            0 -1 239 3.2688386272639036e-03</internalNodes>
          <leafValues>
            -2.1934843063354492e-01 2.8132626414299011e-01</leafValues></_>
        <_>
          <internalNodes>
            0 -1 459 1.7930177273228765e-04</internalNodes>
          <leafValues>
            1.0732936114072800e-01 -4.9627462029457092e-01</leafValues></_>
        <_>
          <internalNodes>
            0 -1 51 -6.9905757904052734e-02</internalNodes>
          <leafValues>
            7.0153170824050903e-01 -7.8023731708526611e-02</leafValues></_>
        <_>
          <internalNodes>
            0 -1 58 -1.3658372685313225e-02</internalNodes>
          <leafValues>
            2.9498127102851868e-01 -2.0912285149097443e-01</leafValues></_>
        <_>
          <internalNodes>
            0 -1 14 -5.2071083337068558e-03</internalNodes>
          <leafValues>
            4.4439199566841125e-01 -1.0897392034530640e-01</leafValues></_>
        <_>
          <internalNodes>
            0 -1 310 -2.2981148213148117e-03</internalNodes>
          <leafValues>
            -5.7182663679122925e-01 9.4569623470306396e-02</leafValues></_>
        <_>
          <internalNodes>
            0 -1 279 9.7178751602768898e-03</internalNodes>
          <leafValues>
            -1.7270627617835999e-01 3.4904125332832336e-01</leafValues></_></weakClassifiers></_>
    <!-- stage 8 -->
    <_>
      <maxWeakCount>38</maxWeakCount>
      <stageThreshold>-1.0404899120330811e+00</stageThreshold>
      <weakClassifiers>
        <_>
          <internalNodes>
            0 -1 242 6.2912900466471910e-04</internalNodes>
          <leafValues>
            4.4296789169311523e-01 -1.1261261254549026e-01</leafValues></_>
        <_>
          <internalNodes>
            0 -1 165 9.7705535590648651e-02</internalNodes>
          <leafValues>
            -1.4974309504032135e-01 4.3849098682403564e-01</leafValues></_>
        <_>
          <internalNodes>
            0 -1 405 5.4452009499073029e-03</internalNodes>
          <leafValues>
            -1.5656675398349762e-01 3.6504623293876648e-01</leafValues></_>
        <_>
          <internalNodes>
            0 -1 341 4.1890339925885201e-03</internalNodes>
          <leafValues>
            -1.8444302678108215e-01 3.8394716382026672e-01</leafValues></_>
        <_>
          <internalNodes>
            0 -1 302 3.1145622488111258e-03</internalNodes>
          <leafValues>
            -1.2018177658319473e-01 4.6266743540763855e-01</leafValues></_>
        <_>
          <internalNodes>
            0 -1 352 -5.0822680350393057e-04</internalNodes>
          <leafValues>
            9.3804165720939636e-02 -5.7137119770050049e-01</leafValues></_>
        <_>
          <internalNodes>
            0 -1 106 7.1931809186935425e-02</internalNodes>
          <leafValues>
            8.5057891905307770e-02 -6.7162543535232544e-01</leafValues></_>
        <_>
          <internalNodes>
            0 -1 286 1.8217638717032969e-04</internalNodes>
          <leafValues>
            -3.0480986833572388e-01 2.1652357280254364e-01</leafValues></_>
        <_>
          <internalNodes>
            0 -1 414 3.2573729753494263e-02</internalNodes>
          <leafValues>
            7.4404634535312653e-02 -6.2378090620040894e-01</leafValues></_>
        <_>
          <internalNodes>
            0 -1 153 5.6999661028385162e-02</internalNodes>
          <leafValues>
            6.3687592744827271e-02 -7.8835314512252808e-01</leafValues></_>
        <_>
          <internalNodes>
            0 -1 121 9.8748765885829926e-03</internalNodes>
          <leafValues>
            -1.1670750379562378e-01 5.1455366611480713e-01</leafValues></_>
        <_>
          <internalNodes>
            0 -1 404 1.1359424097463489e-03</internalNodes>
          <leafValues>
            -1.5673014521598816e-01 3.3936455845832825e-01</leafValues></_>
        <_>
          <internalNodes>
            0 -1 45 5.2252292633056641e-02</internalNodes>
          <leafValues>
            1.1301501840353012e-01 -5.8659410476684570e-01</leafValues></_>
        <_>
          <internalNodes>
            0 -1 454 2.2945334785617888e-04</internalNodes>
          <leafValues>
            9.8035015165805817e-02 -4.9800038337707520e-01</leafValues></_>
        <_>
          <internalNodes>
            0 -1 66 1.4743426814675331e-02</internalNodes>
          <leafValues>
            -1.2583497166633606e-01 4.4051593542098999e-01</leafValues></_>
        <_>
          <internalNodes>
            0 -1 150 -9.6102036535739899e-02</internalNodes>
          <leafValues>
            -6.3992172479629517e-01 8.3487361669540405e-02</leafValues></_>
        <_>
          <internalNodes>
            0 -1 473 9.2602726072072983e-03</internalNodes>
          <leafValues>
            -1.1368692666292191e-01 4.8131039738655090e-01</leafValues></_>
        <_>
          <internalNodes>
            0 -1 529 -9.3395006842911243e-05</internalNodes>
          <leafValues>
            -4.0750661492347717e-01 1.2477393448352814e-01</leafValues></_>
        <_>
          <internalNodes>
            0 -1 11 2.3515975102782249e-02</internalNodes>
          <leafValues>
            -1.0827513784170151e-01 4.5288747549057007e-01</leafValues></_>
        <_>
          <internalNodes>
            0 -1 379 2.0864850375801325e-04</internalNodes>
          <leafValues>
            -2.6098591089248657e-01 1.9518755376338959e-01</leafValues></_>
        <_>
          <internalNodes>
            0 -1 368 -2.1353928605094552e-04</internalNodes>
          <leafValues>
            -3.4113186597824097e-01 1.9198453426361084e-01</leafValues></_>
        <_>
          <internalNodes>
            0 -1 452 2.2841276950202882e-04</internalNodes>
          <leafValues>
            1.5450955927371979e-01 -3.3265557885169983e-01</leafValues></_>
        <_>
          <internalNodes>
            0 -1 137 -3.3768620342016220e-03</internalNodes>
          <leafValues>
            3.1359291076660156e-01 -1.5483020246028900e-01</leafValues></_>
        <_>
          <internalNodes>
            0 -1 81 -1.8659219145774841e-02</internalNodes>
          <leafValues>
            -4.0095487236976624e-01 1.2390860915184021e-01</leafValues></_>
        <_>
          <internalNodes>
            0 -1 280 7.3064090684056282e-03</internalNodes>
          <leafValues>
            -1.4251200854778290e-01 3.6903375387191772e-01</leafValues></_>
        <_>
          <internalNodes>
            0 -1 102 1.2390498071908951e-02</internalNodes>
          <leafValues>
            9.8306082189083099e-02 -6.0524857044219971e-01</leafValues></_>
        <_>
          <internalNodes>
            0 -1 348 -1.5408582839882001e-05</internalNodes>
          <leafValues>
            1.2262741476297379e-01 -3.7260067462921143e-01</leafValues></_>
        <_>
          <internalNodes>
            0 -1 231 -4.0981629863381386e-03</internalNodes>
          <leafValues>
            6.5073841810226440e-01 -7.8453861176967621e-02</leafValues></_>
        <_>
          <internalNodes>
            0 -1 249 2.2248022723942995e-03</internalNodes>
          <leafValues>
            -1.0111574828624725e-01 4.3711420893669128e-01</leafValues></_>
        <_>
          <internalNodes>
            0 -1 345 3.4707647864706814e-04</internalNodes>
          <leafValues>
            1.1211331188678741e-01 -4.5108696818351746e-01</leafValues></_>
        <_>
          <internalNodes>
            0 -1 76 -1.3367322087287903e-01</internalNodes>
          <leafValues>
            7.0185017585754395e-01 -8.3010628819465637e-02</leafValues></_>
        <_>
          <internalNodes>
            0 -1 169 2.0501339808106422e-02</internalNodes>
          <leafValues>
            -6.4568445086479187e-02 6.9175446033477783e-01</leafValues></_>
        <_>
          <internalNodes>
            0 -1 396 -1.4903971459716558e-03</internalNodes>
          <leafValues>
            4.2309981584548950e-01 -1.0059779137372971e-01</leafValues></_>
        <_>
          <internalNodes>
            0 -1 492 -5.8277079369872808e-04</internalNodes>
          <leafValues>
            -5.9475433826446533e-01 8.7595850229263306e-02</leafValues></_>
        <_>
          <internalNodes>
            0 -1 235 9.3948125140741467e-04</internalNodes>
          <leafValues>
            -1.2887695431709290e-01 3.8625559210777283e-01</leafValues></_>
        <_>
          <internalNodes>
            0 -1 337 5.7696935255080462e-04</internalNodes>
          <leafValues>
            -2.2427543997764587e-01 2.0619601011276245e-01</leafValues></_>
        <_>
          <internalNodes>
            0 -1 472 -9.1679015895351768e-05</internalNodes>
          <leafValues>
            -2.6214507222175598e-01 1.9704021513462067e-01</leafValues></_>
        <_>
          <internalNodes>
            0 -1 22 -2.3860834538936615e-01</internalNodes>
          <leafValues>
            5.5177915096282959e-01 -9.3070797622203827e-02</leafValues></_></weakClassifiers></_>
    <!-- stage 9 -->
    <_>
      <maxWeakCount>33</maxWeakCount>
      <stageThreshold>-9.1224068403244019e-01</stageThreshold>
      <weakClassifiers>
        <_>
          <internalNodes>
            0 -1 12 -3.3736073970794678e-01</internalNodes>
          <leafValues>
            -5.0537633895874023e-01 4.0891471505165100e-01</leafValues></_>
        <_>
          <internalNodes>
            0 -1 197 9.2231705784797668e-03</internalNodes>
          <leafValues>
            -1.4068195223808289e-01 3.9315474033355713e-01</leafValues></_>
        <_>
          <internalNodes>
            0 -1 292 2.9964739223942161e-04</internalNodes>
          <leafValues>
            5.9265725314617157e-02 -6.6143113374710083e-01</leafValues></_>
        <_>
          <internalNodes>
            0 -1 161 -3.6043365253135562e-04</internalNodes>
          <leafValues>
            1.3254471123218536e-01 -4.0831908583641052e-01</leafValues></_>
        <_>
          <internalNodes>
            0 -1 453 1.8187891691923141e-04</internalNodes>
          <leafValues>
            1.0782052576541901e-01 -5.6609767675399780e-01</leafValues></_>
        <_>
          <internalNodes>
            0 -1 55 3.5651411861181259e-02</internalNodes>
          <leafValues>
            1.1272890120744705e-01 -4.1527655720710754e-01</leafValues></_>
        <_>
          <internalNodes>
            0 -1 518 -2.2010602697264403e-04</internalNodes>
          <leafValues>
            -4.9357986450195312e-01 9.8698295652866364e-02</leafValues></_>
        <_>
          <internalNodes>
            0 -1 2 -5.2894902229309082e-01</internalNodes>
          <leafValues>
            -5.2429288625717163e-01 9.3882307410240173e-02</leafValues></_>
        <_>
          <internalNodes>
            0 -1 375 -2.5148532586172223e-04</internalNodes>
          <leafValues>
            1.6091826558113098e-01 -3.3426871895790100e-01</leafValues></_>
        <_>
          <internalNodes>
            0 -1 372 1.3153648469597101e-03</internalNodes>
          <leafValues>
            -2.6963555812835693e-01 2.4704998731613159e-01</leafValues></_>
        <_>
          <internalNodes>
            0 -1 206 6.4121156930923462e-02</internalNodes>
          <leafValues>
            1.2040651589632034e-01 -6.7921382188796997e-01</leafValues></_>
        <_>
          <internalNodes>
            0 -1 454 -4.8341054935008287e-04</internalNodes>
          <leafValues>
            -4.9736064672470093e-01 1.0500875115394592e-01</leafValues></_>
        <_>
          <internalNodes>
            0 -1 61 -8.9610576629638672e-02</internalNodes>
          <leafValues>
            5.3900772333145142e-01 -1.3328684866428375e-01</leafValues></_>
        <_>
          <internalNodes>
            0 -1 263 -3.5678092390298843e-03</internalNodes>
          <leafValues>
            5.4001492261886597e-01 -9.8923757672309875e-02</leafValues></_>
        <_>
          <internalNodes>
            0 -1 397 -2.4134959094226360e-03</internalNodes>
          <leafValues>
            4.2531293630599976e-01 -1.2806244194507599e-01</leafValues></_>
        <_>
          <internalNodes>
            0 -1 318 1.5385518781840801e-03</internalNodes>
          <leafValues>
            -2.1719002723693848e-01 2.7540692687034607e-01</leafValues></_>
        <_>
          <internalNodes>
            0 -1 429 1.4887709767208435e-05</internalNodes>
          <leafValues>
            1.2437377125024796e-01 -5.1559168100357056e-01</leafValues></_>
        <_>
          <internalNodes>
            0 -1 34 4.5047372579574585e-02</internalNodes>
          <leafValues>
            9.7682297229766846e-02 -5.2997541427612305e-01</leafValues></_>
        <_>
          <internalNodes>
            0 -1 294 -4.5892136404290795e-04</internalNodes>
          <leafValues>
            -4.8190021514892578e-01 9.0950511395931244e-02</leafValues></_>
        <_>
          <internalNodes>
            0 -1 208 -4.5220190659165382e-03</internalNodes>
          <leafValues>
            5.4731178283691406e-01 -9.6889197826385498e-02</leafValues></_>
        <_>
          <internalNodes>
            0 -1 251 1.7559668049216270e-03</internalNodes>
          <leafValues>
            -1.1147814989089966e-01 4.4716948270797729e-01</leafValues></_>
        <_>
          <internalNodes>
            0 -1 236 4.2430870234966278e-03</internalNodes>
          <leafValues>
            -8.6665362119674683e-02 5.2494090795516968e-01</leafValues></_>
        <_>
          <internalNodes>
            0 -1 17 1.6882743686437607e-02</internalNodes>
          <leafValues>
            -1.4703716337680817e-01 3.4251978993415833e-01</leafValues></_>
        <_>
          <internalNodes>
            0 -1 566 -2.0958207547664642e-02</internalNodes>
          <leafValues>
            6.5652847290039062e-01 -8.2799494266510010e-02</leafValues></_>
        <_>
          <internalNodes>
            0 -1 516 2.8780177235603333e-03</internalNodes>
          <leafValues>
            7.5215920805931091e-02 -7.9524344205856323e-01</leafValues></_>
        <_>
          <internalNodes>
            0 -1 572 4.4926215196028352e-04</internalNodes>
          <leafValues>
            -1.6886137425899506e-01 3.0913010239601135e-01</leafValues></_>
        <_>
          <internalNodes>
            0 -1 67 -2.3097705096006393e-02</internalNodes>
          <leafValues>
            -6.2407475709915161e-01 9.3260943889617920e-02</leafValues></_>
        <_>
          <internalNodes>
            0 -1 346 -7.2540310211479664e-03</internalNodes>
          <leafValues>
            -6.8708235025405884e-01 6.5715409815311432e-02</leafValues></_>
        <_>
          <internalNodes>
            0 -1 253 2.6351963169872761e-03</internalNodes>
          <leafValues>
            -2.0894442498683929e-01 2.8568592667579651e-01</leafValues></_>
        <_>
          <internalNodes>
            0 -1 255 -7.4549550190567970e-03</internalNodes>
          <leafValues>
            5.5755245685577393e-01 -9.9343478679656982e-02</leafValues></_>
        <_>
          <internalNodes>
            0 -1 299 -8.5915683303028345e-04</internalNodes>
          <leafValues>
            -5.0515973567962646e-01 1.0953237861394882e-01</leafValues></_>
        <_>
          <internalNodes>
            0 -1 164 -1.3889081776142120e-02</internalNodes>
          <leafValues>
            3.7846523523330688e-01 -1.3363306224346161e-01</leafValues></_>
        <_>
          <internalNodes>
            0 -1 101 4.1987919248640537e-03</internalNodes>
          <leafValues>
            -1.4774246513843536e-01 3.7906041741371155e-01</leafValues></_></weakClassifiers></_>
    <!-- stage 10 -->
    <_>
      <maxWeakCount>33</maxWeakCount>
      <stageThreshold>-9.6529686450958252e-01</stageThreshold>
      <weakClassifiers>
        <_>
          <internalNodes>
            0 -1 205 9.6351327374577522e-03</internalNodes>
          <leafValues>
            1.2335143238306046e-01 6.1498439311981201e-01</leafValues></_>
        <_>
          <internalNodes>
            0 -1 554 4.0078329038806260e-04</internalNodes>
          <leafValues>
            -2.4338501691818237e-01 2.4152471125125885e-01</leafValues></_>
        <_>
          <internalNodes>
            0 -1 467 3.4066122025251389e-03</internalNodes>
          <leafValues>
            -6.4419433474540710e-02 8.1038510799407959e-01</leafValues></_>
        <_>
          <internalNodes>
            0 -1 465 2.6807392714545131e-04</internalNodes>
          <leafValues>
            -1.6539242863655090e-01 3.1722676753997803e-01</leafValues></_>
        <_>
          <internalNodes>
            0 -1 234 1.1534895002841949e-01</internalNodes>
          <leafValues>
            3.7345629185438156e-02 -8.0351883172988892e-01</leafValues></_>
        <_>
          <internalNodes>
            0 -1 37 -3.3440744876861572e-01</internalNodes>
          <leafValues>
            -7.6910787820816040e-01 9.7760491073131561e-02</leafValues></_>
        <_>
          <internalNodes>
            0 -1 552 -1.9476753659546375e-03</internalNodes>
          <leafValues>
            1.7216455936431885e-01 -2.8223922848701477e-01</leafValues></_>
        <_>
          <internalNodes>
            0 -1 460 3.2545297290198505e-04</internalNodes>
          <leafValues>
            1.0469838976860046e-01 -6.1796087026596069e-01</leafValues></_>
        <_>
          <internalNodes>
            0 -1 215 -1.1111766099929810e-02</internalNodes>
          <leafValues>
            -4.5489081740379333e-01 1.0503131151199341e-01</leafValues></_>
        <_>
          <internalNodes>
            0 -1 25 1.0298442095518112e-02</internalNodes>
          <leafValues>
            -1.3251475989818573e-01 4.1870370507240295e-01</leafValues></_>
        <_>
          <internalNodes>
            0 -1 484 -8.0868136137723923e-04</internalNodes>
          <leafValues>
            -8.1783968210220337e-01 6.0193732380867004e-02</leafValues></_>
        <_>
          <internalNodes>
            0 -1 568 -2.9878823552280664e-03</internalNodes>
          <leafValues>
            4.6061438322067261e-01 -1.1606660485267639e-01</leafValues></_>
        <_>
          <internalNodes>
            0 -1 441 1.0669396258890629e-02</internalNodes>
          <leafValues>
            -1.8657475709915161e-01 2.6067197322845459e-01</leafValues></_>
        <_>
          <internalNodes>
            0 -1 332 3.0862297862768173e-03</internalNodes>
          <leafValues>
            -1.5137800574302673e-01 3.2620003819465637e-01</leafValues></_>
        <_>
          <internalNodes>
            0 -1 442 -1.4694649726152420e-03</internalNodes>
          <leafValues>
            4.1019767522811890e-01 -1.1572725325822830e-01</leafValues></_>
        <_>
          <internalNodes>
            0 -1 166 -7.8358128666877747e-03</internalNodes>
          <leafValues>
            -6.1977076530456543e-01 8.6658805608749390e-02</leafValues></_>
        <_>
          <internalNodes>
            0 -1 85 1.6372846439480782e-03</internalNodes>
          <leafValues>
            1.0450620949268341e-01 -4.4463896751403809e-01</leafValues></_>
        <_>
          <internalNodes>
            0 -1 271 -2.3376410827040672e-03</internalNodes>
          <leafValues>
            5.9425085783004761e-01 -8.4938593208789825e-02</leafValues></_>
        <_>
          <internalNodes>
            0 -1 216 7.5674732215702534e-04</internalNodes>
          <leafValues>
            -2.5679984688758850e-01 1.9737179577350616e-01</leafValues></_>
        <_>
          <internalNodes>
            0 -1 377 -5.3421675693243742e-04</internalNodes>
          <leafValues>
            5.2247744798660278e-01 -1.4389541745185852e-01</leafValues></_>
        <_>
          <internalNodes>
            0 -1 564 8.4031186997890472e-03</internalNodes>
          <leafValues>
            -1.0691780596971512e-01 4.3010309338569641e-01</leafValues></_>
        <_>
          <internalNodes>
            0 -1 539 -1.2638535350561142e-02</internalNodes>
          <leafValues>
            3.7816098332405090e-01 -1.4851067960262299e-01</leafValues></_>
        <_>
          <internalNodes>
            0 -1 387 4.0223792893812060e-05</internalNodes>
          <leafValues>
            1.1220136284828186e-01 -5.3658390045166016e-01</leafValues></_>
        <_>
          <internalNodes>
            0 -1 427 4.5632384717464447e-03</internalNodes>
          <leafValues>
            -1.5563666820526123e-01 3.4133628010749817e-01</leafValues></_>
        <_>
          <internalNodes>
            0 -1 382 1.0906794341281056e-04</internalNodes>
          <leafValues>
            1.5945865213871002e-01 -3.5953965783119202e-01</leafValues></_>
        <_>
          <internalNodes>
            0 -1 7 4.5734677463769913e-02</internalNodes>
          <leafValues>
            -1.4051385223865509e-01 4.3388387560844421e-01</leafValues></_>
        <_>
          <internalNodes>
            0 -1 136 -1.2485680170357227e-02</internalNodes>
          <leafValues>
            3.5152047872543335e-01 -1.7329566180706024e-01</leafValues></_>
        <_>
          <internalNodes>
            0 -1 127 -1.8367160111665726e-02</internalNodes>
          <leafValues>
            6.6797953844070435e-01 -7.2894871234893799e-02</leafValues></_>
        <_>
          <internalNodes>
            0 -1 247 2.3299653083086014e-02</internalNodes>
          <leafValues>
            1.1727541685104370e-01 -5.0347405672073364e-01</leafValues></_>
        <_>
          <internalNodes>
            0 -1 240 7.4952852446585894e-04</internalNodes>
          <leafValues>
            1.6963966190814972e-01 -3.3925217390060425e-01</leafValues></_>
        <_>
          <internalNodes>
            0 -1 501 2.1024327725172043e-03</internalNodes>
          <leafValues>
            -6.4119780063629150e-01 9.2174075543880463e-02</leafValues></_>
        <_>
          <internalNodes>
            0 -1 306 -2.4762740358710289e-03</internalNodes>
          <leafValues>
            5.8569133281707764e-01 -1.0857320576906204e-01</leafValues></_>
        <_>
          <internalNodes>
            0 -1 113 4.1532367467880249e-03</internalNodes>
          <leafValues>
            -1.3279987871646881e-01 3.7912920117378235e-01</leafValues></_></weakClassifiers></_>
    <!-- stage 11 -->
    <_>
      <maxWeakCount>18</maxWeakCount>
      <stageThreshold>-9.4750624895095825e-01</stageThreshold>
      <weakClassifiers>
        <_>
          <internalNodes>
            0 -1 481 -1.9570454955101013e-02</internalNodes>
          <leafValues>
            7.6341462135314941e-01 8.6713284254074097e-02</leafValues></_>
        <_>
          <internalNodes>
            0 -1 220 6.9248778745532036e-03</internalNodes>
          <leafValues>
            -1.6269326210021973e-01 5.2942717075347900e-01</leafValues></_>
        <_>
          <internalNodes>
            0 -1 528 1.4622971415519714e-02</internalNodes>
          <leafValues>
            -1.3705693185329437e-01 6.3168227672576904e-01</leafValues></_>
        <_>
          <internalNodes>
            0 -1 163 -4.4831344857811928e-03</internalNodes>
          <leafValues>
            3.1850212812423706e-01 -2.8593152761459351e-01</leafValues></_>
        <_>
          <internalNodes>
            0 -1 132 -5.3960829973220825e-04</internalNodes>
          <leafValues>
            -3.8912865519523621e-01 2.4859896302223206e-01</leafValues></_>
        <_>
          <internalNodes>
            0 -1 535 -9.0927584096789360e-05</internalNodes>
          <leafValues>
            -3.6933884024620056e-01 1.8691544234752655e-01</leafValues></_>
        <_>
          <internalNodes>
            0 -1 342 9.4203557819128036e-03</internalNodes>
          <leafValues>
            -1.0721132904291153e-01 6.1659145355224609e-01</leafValues></_>
        <_>
          <internalNodes>
            0 -1 474 -1.9928354959120043e-05</internalNodes>
          <leafValues>
            -3.3972039818763733e-01 2.9639011621475220e-01</leafValues></_>
        <_>
          <internalNodes>
            0 -1 494 -2.5008847005665302e-03</internalNodes>
          <leafValues>
            6.7601418495178223e-01 -1.2931990623474121e-01</leafValues></_>
        <_>
          <internalNodes>
            0 -1 339 -2.0770099945366383e-03</internalNodes>
          <leafValues>
            4.0212312340736389e-01 -2.1684673428535461e-01</leafValues></_>
        <_>
          <internalNodes>
            0 -1 210 -2.7198134921491146e-03</internalNodes>
          <leafValues>
            -5.4927474260330200e-01 1.4951591193675995e-01</leafValues></_>
        <_>
          <internalNodes>
            0 -1 333 -8.6369429482147098e-05</internalNodes>
          <leafValues>
            -3.2775381207466125e-01 2.0255120098590851e-01</leafValues></_>
        <_>
          <internalNodes>
            0 -1 453 2.7453197981230915e-04</internalNodes>
          <leafValues>
            1.1431814730167389e-01 -7.6211369037628174e-01</leafValues></_>
        <_>
          <internalNodes>
            0 -1 571 9.8038429860025644e-04</internalNodes>
          <leafValues>
            -1.6534575819969177e-01 5.1275253295898438e-01</leafValues></_>
        <_>
          <internalNodes>
            0 -1 65 1.3840950094163418e-02</internalNodes>
          <leafValues>
            1.9625751674175262e-01 -3.6432996392250061e-01</leafValues></_>
        <_>
          <internalNodes>
            0 -1 33 -3.6642043851315975e-03</internalNodes>
          <leafValues>
            4.8708572983741760e-01 -1.5358906984329224e-01</leafValues></_>
        <_>
          <internalNodes>
            0 -1 77 3.9605460187885910e-05</internalNodes>
          <leafValues>
            2.2347055375576019e-01 -3.2079631090164185e-01</leafValues></_>
        <_>
          <internalNodes>
            0 -1 1 -2.6115614175796509e-01</internalNodes>
          <leafValues>
            7.2501653432846069e-01 -8.6550399661064148e-02</leafValues></_></weakClassifiers></_>
    <!-- stage 12 -->
    <_>
      <maxWeakCount>33</maxWeakCount>
      <stageThreshold>-7.6391237974166870e-01</stageThreshold>
      <weakClassifiers>
        <_>
          <internalNodes>
            0 -1 359 -7.4214404448866844e-03</internalNodes>
          <leafValues>
            -5.6800001859664917e-01 3.8635292649269104e-01</leafValues></_>
        <_>
          <internalNodes>
            0 -1 188 1.2588154524564743e-02</internalNodes>
          <leafValues>
            -1.3275706768035889e-01 4.6543261408805847e-01</leafValues></_>
        <_>
          <internalNodes>
            0 -1 557 7.5328141974750906e-05</internalNodes>
          <leafValues>
            1.4148095250129700e-01 -3.0442902445793152e-01</leafValues></_>
        <_>
          <internalNodes>
            0 -1 10 -2.8295090422034264e-02</internalNodes>
          <leafValues>
            3.7245741486549377e-01 -1.3124883174896240e-01</leafValues></_>
        <_>
          <internalNodes>
            0 -1 261 1.5257045160979033e-03</internalNodes>
          <leafValues>
            -2.5184381008148193e-01 2.1591897308826447e-01</leafValues></_>
        <_>
          <internalNodes>
            0 -1 345 2.9444313258863986e-04</internalNodes>
          <leafValues>
            1.3020205497741699e-01 -4.7745236754417419e-01</leafValues></_>
        <_>
          <internalNodes>
            0 -1 381 2.0861312805209309e-04</internalNodes>
          <leafValues>
            -3.9368268847465515e-01 1.2624621391296387e-01</leafValues></_>
        <_>
          <internalNodes>
            0 -1 277 2.5090317649301142e-05</internalNodes>
          <leafValues>
            -2.5287219882011414e-01 2.2013454139232635e-01</leafValues></_>
        <_>
          <internalNodes>
            0 -1 158 -4.4130775495432317e-04</internalNodes>
          <leafValues>
            2.3545287549495697e-01 -2.7326506376266479e-01</leafValues></_>
        <_>
          <internalNodes>
            0 -1 159 7.7944912482053041e-04</internalNodes>
          <leafValues>
            -1.4698390662670135e-01 3.2421571016311646e-01</leafValues></_>
        <_>
          <internalNodes>
            0 -1 145 -8.6412653326988220e-03</internalNodes>
          <leafValues>
            -6.7073011398315430e-01 9.3371190130710602e-02</leafValues></_>
        <_>
          <internalNodes>
            0 -1 456 1.5002477448433638e-04</internalNodes>
          <leafValues>
            9.4741344451904297e-02 -4.6204233169555664e-01</leafValues></_>
        <_>
          <internalNodes>
            0 -1 471 6.0807709814980626e-04</internalNodes>
          <leafValues>
            3.0668249726295471e-01 -1.6672243177890778e-01</leafValues></_>
        <_>
          <internalNodes>
            0 -1 369 3.6174827255308628e-03</internalNodes>
          <leafValues>
            -1.7614483833312988e-01 3.2461792230606079e-01</leafValues></_>
        <_>
          <internalNodes>
            0 -1 445 2.6366482488811016e-03</internalNodes>
          <leafValues>
            -7.5221903622150421e-02 6.4855903387069702e-01</leafValues></_>
        <_>
          <internalNodes>
            0 -1 546 -4.2730253189802170e-03</internalNodes>
          <leafValues>
            -6.3504546880722046e-01 9.4545483589172363e-02</leafValues></_>
        <_>
          <internalNodes>
            0 -1 408 -1.3215930666774511e-03</internalNodes>
          <leafValues>
            4.3979349732398987e-01 -1.3230168819427490e-01</leafValues></_>
        <_>
          <internalNodes>
            0 -1 117 5.8558871969580650e-03</internalNodes>
          <leafValues>
            1.0370637476444244e-01 -6.3069784641265869e-01</leafValues></_>
        <_>
          <internalNodes>
            0 -1 515 -5.2979812608100474e-05</internalNodes>
          <leafValues>
            -3.6527293920516968e-01 1.2786681950092316e-01</leafValues></_>
        <_>
          <internalNodes>
            0 -1 73 1.7720244824886322e-02</internalNodes>
          <leafValues>
            -8.7020605802536011e-02 5.4434627294540405e-01</leafValues></_>
        <_>
          <internalNodes>
            0 -1 35 -4.3486613780260086e-02</internalNodes>
          <leafValues>
            5.6845515966415405e-01 -9.2429816722869873e-02</leafValues></_>
        <_>
          <internalNodes>
            0 -1 78 1.8824342638254166e-02</internalNodes>
          <leafValues>
            7.6386839151382446e-02 -7.7064710855484009e-01</leafValues></_>
        <_>
          <internalNodes>
            0 -1 57 -2.1484129130840302e-02</internalNodes>
          <leafValues>
            -5.8203780651092529e-01 7.2863720357418060e-02</leafValues></_>
        <_>
          <internalNodes>
            0 -1 403 2.4812985211610794e-03</internalNodes>
          <leafValues>
            -1.8731498718261719e-01 2.5095984339714050e-01</leafValues></_>
        <_>
          <internalNodes>
            0 -1 278 3.5363850183784962e-03</internalNodes>
          <leafValues>
            -1.6210238635540009e-01 3.5012632608413696e-01</leafValues></_>
        <_>
          <internalNodes>
            0 -1 365 1.7102184938266873e-04</internalNodes>
          <leafValues>
            -3.0489474534988403e-01 1.7898535728454590e-01</leafValues></_>
        <_>
          <internalNodes>
            0 -1 13 1.5122826397418976e-01</internalNodes>
          <leafValues>
            -7.1228004992008209e-02 7.9238116741180420e-01</leafValues></_>
        <_>
          <internalNodes>
            0 -1 421 1.1375441681593657e-03</internalNodes>
          <leafValues>
            1.8892095983028412e-01 -3.0086633563041687e-01</leafValues></_>
        <_>
          <internalNodes>
            0 -1 538 -1.7657462507486343e-02</internalNodes>
          <leafValues>
            3.4274068474769592e-01 -1.5480905771255493e-01</leafValues></_>
        <_>
          <internalNodes>
            0 -1 561 1.4045625925064087e-02</internalNodes>
          <leafValues>
            -1.4160017669200897e-01 4.0998050570487976e-01</leafValues></_>
        <_>
          <internalNodes>
            0 -1 386 3.0679372139275074e-04</internalNodes>
          <leafValues>
            -1.2785185873508453e-01 3.5456520318984985e-01</leafValues></_>
        <_>
          <internalNodes>
            0 -1 513 -3.2056611962616444e-04</internalNodes>
          <leafValues>
            -6.0300761461257935e-01 8.4164544939994812e-02</leafValues></_>
        <_>
          <internalNodes>
            0 -1 526 4.6462461352348328e-02</internalNodes>
          <leafValues>
            -1.0726353526115417e-01 4.8586565256118774e-01</leafValues></_></weakClassifiers></_>
    <!-- stage 13 -->
    <_>
      <maxWeakCount>39</maxWeakCount>
      <stageThreshold>-9.2117011547088623e-01</stageThreshold>
      <weakClassifiers>
        <_>
          <internalNodes>
            0 -1 129 2.1969019144307822e-05</internalNodes>
          <leafValues>
            4.5858344435691833e-01 -2.3972602561116219e-02</leafValues></_>
        <_>
          <internalNodes>
            0 -1 311 -1.9514672458171844e-02</internalNodes>
          <leafValues>
            4.4051545858383179e-01 -1.1719796806573868e-01</leafValues></_>
        <_>
          <internalNodes>
            0 -1 417 2.9169050976634026e-03</internalNodes>
          <leafValues>
            -8.2438789308071136e-02 5.5265235900878906e-01</leafValues></_>
        <_>
          <internalNodes>
            0 -1 416 -7.9601490870118141e-04</internalNodes>
          <leafValues>
            3.3105763792991638e-01 -1.8362881243228912e-01</leafValues></_>
        <_>
          <internalNodes>
            0 -1 154 -3.1592793762683868e-02</internalNodes>
          <leafValues>
            -9.0542209148406982e-01 7.5595773756504059e-02</leafValues></_>
        <_>
          <internalNodes>
            0 -1 245 5.0639864057302475e-02</internalNodes>
          <leafValues>
            5.4428860545158386e-02 -7.5889712572097778e-01</leafValues></_>
        <_>
          <internalNodes>
            0 -1 198 -9.7535243257880211e-03</internalNodes>
          <leafValues>
            3.5288178920745850e-01 -1.3501669466495514e-01</leafValues></_>
        <_>
          <internalNodes>
            0 -1 373 -5.9721765865106136e-05</internalNodes>
          <leafValues>
            -2.7789336442947388e-01 2.0141766965389252e-01</leafValues></_>
        <_>
          <internalNodes>
            0 -1 351 2.5977832265198231e-03</internalNodes>
          <leafValues>
            -1.5757167339324951e-01 3.9310485124588013e-01</leafValues></_>
        <_>
          <internalNodes>
            0 -1 238 2.8795730322599411e-03</internalNodes>
          <leafValues>
            -2.5529161095619202e-01 2.0865948498249054e-01</leafValues></_>
        <_>
          <internalNodes>
            0 -1 325 -1.2614489241968840e-04</internalNodes>
          <leafValues>
            -4.0983277559280396e-01 1.3253793120384216e-01</leafValues></_>
        <_>
          <internalNodes>
            0 -1 99 -9.4940257258713245e-04</internalNodes>
          <leafValues>
            1.9236855208873749e-01 -2.8652992844581604e-01</leafValues></_>
        <_>
          <internalNodes>
            0 -1 321 -7.4914178185281344e-06</internalNodes>
          <leafValues>
            -3.2784190773963928e-01 1.5532578527927399e-01</leafValues></_>
        <_>
          <internalNodes>
            0 -1 179 6.5588772296905518e-02</internalNodes>
          <leafValues>
            5.8497402817010880e-02 -6.8233966827392578e-01</leafValues></_>
        <_>
          <internalNodes>
            0 -1 4 3.4660331439226866e-03</internalNodes>
          <leafValues>
            -1.1524511873722076e-01 4.2136660218238831e-01</leafValues></_>
        <_>
          <internalNodes>
            0 -1 510 4.4510804582387209e-04</internalNodes>
          <leafValues>
            3.5220888257026672e-01 -1.3294556736946106e-01</leafValues></_>
        <_>
          <internalNodes>
            0 -1 357 1.4202041784301400e-03</internalNodes>
          <leafValues>
            8.2857981324195862e-02 -6.6449028253555298e-01</leafValues></_>
        <_>
          <internalNodes>
            0 -1 431 1.2375388760119677e-03</internalNodes>
          <leafValues>
            -1.4734026789665222e-01 3.1029605865478516e-01</leafValues></_>
        <_>
          <internalNodes>
            0 -1 293 -5.4000056115910411e-04</internalNodes>
          <leafValues>
            -4.1746452450752258e-01 1.1250701546669006e-01</leafValues></_>
        <_>
          <internalNodes>
            0 -1 489 3.3846544101834297e-03</internalNodes>
          <leafValues>
            -5.7217007875442505e-01 7.7689267694950104e-02</leafValues></_>
        <_>
          <internalNodes>
            0 -1 483 2.5980621576309204e-03</internalNodes>
          <leafValues>
            5.2990198135375977e-02 -7.2196227312088013e-01</leafValues></_>
        <_>
          <internalNodes>
            0 -1 182 -1.5931793022900820e-03</internalNodes>
          <leafValues>
            2.9633647203445435e-01 -1.3820190727710724e-01</leafValues></_>
        <_>
          <internalNodes>
            0 -1 148 1.1792383156716824e-02</internalNodes>
          <leafValues>
            -8.7292775511741638e-02 5.1891952753067017e-01</leafValues></_>
        <_>
          <internalNodes>
            0 -1 109 2.8326314350124449e-05</internalNodes>
          <leafValues>
            1.6374707221984863e-01 -2.6390716433525085e-01</leafValues></_>
        <_>
          <internalNodes>
            0 -1 47 -1.6860777139663696e-01</internalNodes>
          <leafValues>
            6.3666743040084839e-01 -8.0512568354606628e-02</leafValues></_>
        <_>
          <internalNodes>
            0 -1 115 8.6734425276517868e-03</internalNodes>
          <leafValues>
            -7.8143514692783356e-02 5.0534272193908691e-01</leafValues></_>
        <_>
          <internalNodes>
            0 -1 98 -3.6308623850345612e-02</internalNodes>
          <leafValues>
            -5.1756137609481812e-01 1.0035489499568939e-01</leafValues></_>
        <_>
          <internalNodes>
            0 -1 156 -3.5168831236660480e-03</internalNodes>
          <leafValues>
            3.0133181810379028e-01 -1.6241572797298431e-01</leafValues></_>
        <_>
          <internalNodes>
            0 -1 72 -4.5911192893981934e-02</internalNodes>
          <leafValues>
            6.1475408077239990e-01 -7.9090304672718048e-02</leafValues></_>
        <_>
          <internalNodes>
            0 -1 189 1.4598429203033447e-02</internalNodes>
          <leafValues>
            9.2594861984252930e-02 -4.5732590556144714e-01</leafValues></_>
        <_>
          <internalNodes>
            0 -1 449 4.9550019204616547e-02</internalNodes>
          <leafValues>
            -7.1678213775157928e-02 6.4362341165542603e-01</leafValues></_>
        <_>
          <internalNodes>
            0 -1 157 4.8418319784104824e-04</internalNodes>
          <leafValues>
            1.1452193558216095e-01 -3.9856714010238647e-01</leafValues></_>
        <_>
          <internalNodes>
            0 -1 28 -6.5294787287712097e-02</internalNodes>
          <leafValues>
            -3.8989529013633728e-01 1.0072966665029526e-01</leafValues></_>
        <_>
          <internalNodes>
            0 -1 105 2.0054992288351059e-02</internalNodes>
          <leafValues>
            -1.0650371760129929e-01 4.1036394238471985e-01</leafValues></_>
        <_>
          <internalNodes>
            0 -1 211 3.3065525349229574e-03</internalNodes>
          <leafValues>
            -1.9591242074966431e-01 2.0958052575588226e-01</leafValues></_>
        <_>
          <internalNodes>
            0 -1 295 2.0485506393015385e-03</internalNodes>
          <leafValues>
            -1.4442332088947296e-01 3.3480656147003174e-01</leafValues></_>
        <_>
          <internalNodes>
            0 -1 118 3.0500981956720352e-03</internalNodes>
          <leafValues>
            1.4935806393623352e-01 -3.7488657236099243e-01</leafValues></_>
        <_>
          <internalNodes>
            0 -1 110 -7.6818238012492657e-03</internalNodes>
          <leafValues>
            3.9375945925712585e-01 -1.1456835269927979e-01</leafValues></_>
        <_>
          <internalNodes>
            0 -1 135 -3.3153890399262309e-04</internalNodes>
          <leafValues>
            -3.7299653887748718e-01 1.4662639796733856e-01</leafValues></_></weakClassifiers></_>
    <!-- stage 14 -->
    <_>
      <maxWeakCount>27</maxWeakCount>
      <stageThreshold>-1.0413355827331543e+00</stageThreshold>
      <weakClassifiers>
        <_>
          <internalNodes>
            0 -1 68 3.6392856389284134e-02</internalNodes>
          <leafValues>
            4.1638717055320740e-01 -7.3006135225296021e-01</leafValues></_>
        <_>
          <internalNodes>
            0 -1 53 -8.2808181643486023e-02</internalNodes>
          <leafValues>
            -4.2437979578971863e-01 2.7164635062217712e-01</leafValues></_>
        <_>
          <internalNodes>
            0 -1 212 -1.0192076116800308e-01</internalNodes>
          <leafValues>
            3.5865831375122070e-01 -2.5282022356987000e-01</leafValues></_>
        <_>
          <internalNodes>
            0 -1 246 2.0194202661514282e-03</internalNodes>
          <leafValues>
            -2.0405451953411102e-01 3.3917763829231262e-01</leafValues></_>
        <_>
          <internalNodes>
            0 -1 326 2.2669759346172214e-04</internalNodes>
          <leafValues>
            -2.1224279701709747e-01 3.3924037218093872e-01</leafValues></_>
        <_>
          <internalNodes>
            0 -1 541 -2.1740488591603935e-04</internalNodes>
          <leafValues>
            -3.6210897564888000e-01 1.6837090253829956e-01</leafValues></_>
        <_>
          <internalNodes>
            0 -1 313 2.4295873008668423e-03</internalNodes>
          <leafValues>
            -2.1382886171340942e-01 2.9106691479682922e-01</leafValues></_>
        <_>
          <internalNodes>
            0 -1 384 4.1120215319097042e-03</internalNodes>
          <leafValues>
            -1.7270696163177490e-01 4.5681637525558472e-01</leafValues></_>
        <_>
          <internalNodes>
            0 -1 517 -5.1888043526560068e-04</internalNodes>
          <leafValues>
            -6.7559731006622314e-01 7.1568861603736877e-02</leafValues></_>
        <_>
          <internalNodes>
            0 -1 303 3.5730903618969023e-04</internalNodes>
          <leafValues>
            -1.5167231857776642e-01 3.7668830156326294e-01</leafValues></_>
        <_>
          <internalNodes>
            0 -1 273 -1.2575075961649418e-03</internalNodes>
          <leafValues>
            4.3122321367263794e-01 -1.3755221664905548e-01</leafValues></_>
        <_>
          <internalNodes>
            0 -1 531 5.4158279672265053e-03</internalNodes>
          <leafValues>
            1.0317469388246536e-01 -6.4599311351776123e-01</leafValues></_>
        <_>
          <internalNodes>
            0 -1 44 -2.7652480639517307e-04</internalNodes>
          <leafValues>
            -3.4062302112579346e-01 1.5344181656837463e-01</leafValues></_>
        <_>
          <internalNodes>
            0 -1 243 -2.4557911092415452e-04</internalNodes>
          <leafValues>
            -3.8395863771438599e-01 1.3151916861534119e-01</leafValues></_>
        <_>
          <internalNodes>
            0 -1 252 1.0896118357777596e-02</internalNodes>
          <leafValues>
            -1.1273035407066345e-01 4.9894556403160095e-01</leafValues></_>
        <_>
          <internalNodes>
            0 -1 119 -5.9970393776893616e-02</internalNodes>
          <leafValues>
            -6.7189711332321167e-01 7.7259942889213562e-02</leafValues></_>
        <_>
          <internalNodes>
            0 -1 93 6.4122607000172138e-03</internalNodes>
          <leafValues>
            -1.7352572083473206e-01 3.4507024288177490e-01</leafValues></_>
        <_>
          <internalNodes>
            0 -1 84 -2.8978768386878073e-04</internalNodes>
          <leafValues>
            1.7354345321655273e-01 -3.3754754066467285e-01</leafValues></_>
        <_>
          <internalNodes>
            0 -1 176 4.3612867593765259e-03</internalNodes>
          <leafValues>
            -1.3219906389713287e-01 4.3098366260528564e-01</leafValues></_>
        <_>
          <internalNodes>
            0 -1 18 -6.7711186408996582e-01</internalNodes>
          <leafValues>
            6.8802398443222046e-01 -7.8889325261116028e-02</leafValues></_>
        <_>
          <internalNodes>
            0 -1 367 -4.1751954704523087e-02</internalNodes>
          <leafValues>
            -8.0134016275405884e-01 7.2688788175582886e-02</leafValues></_>
        <_>
          <internalNodes>
            0 -1 183 -1.1228166520595551e-02</internalNodes>
          <leafValues>
            3.8441026210784912e-01 -1.4648170769214630e-01</leafValues></_>
        <_>
          <internalNodes>
            0 -1 116 -8.7175881490111351e-03</internalNodes>
          <leafValues>
            -5.9404093027114868e-01 1.0748023539781570e-01</leafValues></_>
        <_>
          <internalNodes>
            0 -1 376 1.2681396910920739e-03</internalNodes>
          <leafValues>
            -1.4403881132602692e-01 4.3306249380111694e-01</leafValues></_>
        <_>
          <internalNodes>
            0 -1 276 1.6261745244264603e-02</internalNodes>
          <leafValues>
            1.1820806562900543e-01 -6.0081756114959717e-01</leafValues></_>
        <_>
          <internalNodes>
            0 -1 431 1.8073639366775751e-03</internalNodes>
          <leafValues>
            -1.4508983492851257e-01 4.9185624718666077e-01</leafValues></_>
        <_>
          <internalNodes>
            0 -1 534 1.9867795344907790e-05</internalNodes>
          <leafValues>
            1.7478796839714050e-01 -4.0638458728790283e-01</leafValues></_></weakClassifiers></_>
    <!-- stage 15 -->
    <_>
      <maxWeakCount>40</maxWeakCount>
      <stageThreshold>-9.1145873069763184e-01</stageThreshold>
      <weakClassifiers>
        <_>
          <internalNodes>
            0 -1 196 3.5860575735569000e-03</internalNodes>
          <leafValues>
            1.5180723369121552e-01 5.5820894241333008e-01</leafValues></_>
        <_>
          <internalNodes>
            0 -1 100 -2.0048128499183804e-04</internalNodes>
          <leafValues>
            1.5614980459213257e-01 -3.7432616949081421e-01</leafValues></_>
        <_>
          <internalNodes>
            0 -1 314 2.4387382436543703e-03</internalNodes>
          <leafValues>
            -2.0349484682083130e-01 2.3657010495662689e-01</leafValues></_>
        <_>
          <internalNodes>
            0 -1 406 4.1990522295236588e-03</internalNodes>
          <leafValues>
            -1.5645004808902740e-01 2.9180645942687988e-01</leafValues></_>
        <_>
          <internalNodes>
            0 -1 224 4.3386751785874367e-03</internalNodes>
          <leafValues>
            2.0722754299640656e-02 -7.9540187120437622e-01</leafValues></_>
        <_>
          <internalNodes>
            0 -1 423 -7.2383433580398560e-03</internalNodes>
          <leafValues>
            5.4744046926498413e-01 -8.0908060073852539e-02</leafValues></_>
        <_>
          <internalNodes>
            0 -1 560 2.4283271282911301e-02</internalNodes>
          <leafValues>
            -1.6350969672203064e-01 3.2651486992835999e-01</leafValues></_>
        <_>
          <internalNodes>
            0 -1 508 1.9028761016670614e-05</internalNodes>
          <leafValues>
            -2.4327355623245239e-01 1.8546552956104279e-01</leafValues></_>
        <_>
          <internalNodes>
            0 -1 451 8.8828608568292111e-05</internalNodes>
          <leafValues>
            1.3213078677654266e-01 -3.1105816364288330e-01</leafValues></_>
        <_>
          <internalNodes>
            0 -1 520 -2.0545233564916998e-04</internalNodes>
          <leafValues>
            2.9157912731170654e-01 -1.4049436151981354e-01</leafValues></_>
        <_>
          <internalNodes>
            0 -1 498 4.6094256686046720e-04</internalNodes>
          <leafValues>
            6.9078303873538971e-02 -5.5735063552856445e-01</leafValues></_>
        <_>
          <internalNodes>
            0 -1 559 -3.3996542333625257e-04</internalNodes>
          <leafValues>
            2.3484098911285400e-01 -2.0300045609474182e-01</leafValues></_>
        <_>
          <internalNodes>
            0 -1 90 5.5432282388210297e-03</internalNodes>
          <leafValues>
            -1.4281414449214935e-01 3.1610220670700073e-01</leafValues></_>
        <_>
          <internalNodes>
            0 -1 507 3.1529579311609268e-02</internalNodes>
          <leafValues>
            -1.0061807185411453e-01 4.7976180911064148e-01</leafValues></_>
        <_>
          <internalNodes>
            0 -1 448 5.9501141309738159e-02</internalNodes>
          <leafValues>
            1.0842104256153107e-01 -5.4973155260086060e-01</leafValues></_>
        <_>
          <internalNodes>
            0 -1 415 9.3787182122468948e-03</internalNodes>
          <leafValues>
            5.8903623372316360e-02 -5.4488855600357056e-01</leafValues></_>
        <_>
          <internalNodes>
            0 -1 178 -2.2602868266403675e-03</internalNodes>
          <leafValues>
            3.8926380872726440e-01 -1.3098688423633575e-01</leafValues></_>
        <_>
          <internalNodes>
            0 -1 390 2.4208196555264294e-04</internalNodes>
          <leafValues>
            8.1604510545730591e-02 -6.2072730064392090e-01</leafValues></_>
        <_>
          <internalNodes>
            0 -1 319 5.0757458666339517e-05</internalNodes>
          <leafValues>
            1.5922851860523224e-01 -2.7444517612457275e-01</leafValues></_>
        <_>
          <internalNodes>
            0 -1 358 -9.8390467464923859e-02</internalNodes>
          <leafValues>
            -5.6133270263671875e-01 8.5317537188529968e-02</leafValues></_>
        <_>
          <internalNodes>
            0 -1 191 9.6870958805084229e-04</internalNodes>
          <leafValues>
            -2.2311124205589294e-01 2.0112851262092590e-01</leafValues></_>
        <_>
          <internalNodes>
            0 -1 111 2.7991984970867634e-03</internalNodes>
          <leafValues>
            -1.6718974709510803e-01 3.3321276307106018e-01</leafValues></_>
        <_>
          <internalNodes>
            0 -1 207 -9.9837845191359520e-03</internalNodes>
          <leafValues>
            -6.3543975353240967e-01 7.3273517191410065e-02</leafValues></_>
        <_>
          <internalNodes>
            0 -1 8 8.9545072987675667e-03</internalNodes>
          <leafValues>
            -1.3289630413055420e-01 4.0805694460868835e-01</leafValues></_>
        <_>
          <internalNodes>
            0 -1 241 4.0664125117473304e-04</internalNodes>
          <leafValues>
            1.2488035857677460e-01 -3.7180024385452271e-01</leafValues></_>
        <_>
          <internalNodes>
            0 -1 218 1.8904139287769794e-03</internalNodes>
          <leafValues>
            -1.7393119633197784e-01 2.7041956782341003e-01</leafValues></_>
        <_>
          <internalNodes>
            0 -1 355 3.1560011848341674e-05</internalNodes>
          <leafValues>
            1.2704274058341980e-01 -3.4492063522338867e-01</leafValues></_>
        <_>
          <internalNodes>
            0 -1 237 -6.5214492380619049e-02</internalNodes>
          <leafValues>
            5.8626776933670044e-01 -8.1129327416419983e-02</leafValues></_>
        <_>
          <internalNodes>
            0 -1 287 1.6455899458378553e-04</internalNodes>
          <leafValues>
            -2.7140620350837708e-01 1.9048900902271271e-01</leafValues></_>
        <_>
          <internalNodes>
            0 -1 445 -1.2514947447925806e-03</internalNodes>
          <leafValues>
            3.6280998587608337e-01 -1.3550123572349548e-01</leafValues></_>
        <_>
          <internalNodes>
            0 -1 143 2.3424197570420802e-04</internalNodes>
          <leafValues>
            2.1019162237644196e-01 -2.4004782736301422e-01</leafValues></_>
        <_>
          <internalNodes>
            0 -1 536 -1.4513777568936348e-04</internalNodes>
          <leafValues>
            -3.7538960576057434e-01 1.1760094761848450e-01</leafValues></_>
        <_>
          <internalNodes>
            0 -1 418 1.0253998637199402e-01</internalNodes>
          <leafValues>
            -7.0531554520130157e-02 6.0595774650573730e-01</leafValues></_>
        <_>
          <internalNodes>
            0 -1 172 4.1140783578157425e-03</internalNodes>
          <leafValues>
            -9.1367430984973907e-02 4.1278851032257080e-01</leafValues></_>
        <_>
          <internalNodes>
            0 -1 254 -3.4538358449935913e-03</internalNodes>
          <leafValues>
            -7.0234471559524536e-01 7.8182302415370941e-02</leafValues></_>
        <_>
          <internalNodes>
            0 -1 104 2.0898845978081226e-03</internalNodes>
          <leafValues>
            7.1687892079353333e-02 -5.7803714275360107e-01</leafValues></_>
        <_>
          <internalNodes>
            0 -1 125 -4.5944541692733765e-02</internalNodes>
          <leafValues>
            7.0173966884613037e-01 -6.8376131355762482e-02</leafValues></_>
        <_>
          <internalNodes>
            0 -1 447 -5.4487981833517551e-04</internalNodes>
          <leafValues>
            2.9667454957962036e-01 -1.3726270198822021e-01</leafValues></_>
        <_>
          <internalNodes>
            0 -1 149 1.0428331047296524e-01</internalNodes>
          <leafValues>
            8.5004977881908417e-02 -5.2555674314498901e-01</leafValues></_>
        <_>
          <internalNodes>
            0 -1 500 6.2307943589985371e-03</internalNodes>
          <leafValues>
            -6.8336129188537598e-01 5.6606370955705643e-02</leafValues></_></weakClassifiers></_>
    <!-- stage 16 -->
    <_>
      <maxWeakCount>35</maxWeakCount>
      <stageThreshold>-9.5058107376098633e-01</stageThreshold>
      <weakClassifiers>
        <_>
          <internalNodes>
            0 -1 532 3.5716150887310505e-04</internalNodes>
          <leafValues>
            4.4065207242965698e-01 -4.0069687366485596e-01</leafValues></_>
        <_>
          <internalNodes>
            0 -1 347 4.6995590673759580e-04</internalNodes>
          <leafValues>
            1.5182550251483917e-01 -4.7721004486083984e-01</leafValues></_>
        <_>
          <internalNodes>
            0 -1 479 -3.6664031445980072e-02</internalNodes>
          <leafValues>
            3.8187950849533081e-01 -1.7346896231174469e-01</leafValues></_>
        <_>
          <internalNodes>
            0 -1 46 4.0595054626464844e-02</internalNodes>
          <leafValues>
            -1.0180511325597763e-01 5.4269719123840332e-01</leafValues></_>
        <_>
          <internalNodes>
            0 -1 336 -6.2389383092522621e-03</internalNodes>
          <leafValues>
            2.9683348536491394e-01 -1.9683609902858734e-01</leafValues></_>
        <_>
          <internalNodes>
            0 -1 354 1.0791241948027164e-04</internalNodes>
          <leafValues>
            -2.1538060903549194e-01 2.9774144291877747e-01</leafValues></_>
        <_>
          <internalNodes>
            0 -1 184 -1.5115738846361637e-02</internalNodes>
          <leafValues>
            6.4701163768768311e-01 -8.8299594819545746e-02</leafValues></_>
        <_>
          <internalNodes>
            0 -1 325 1.9899207109119743e-04</internalNodes>
          <leafValues>
            1.0700012743473053e-01 -5.1504892110824585e-01</leafValues></_>
        <_>
          <internalNodes>
            0 -1 360 -6.6347829997539520e-02</internalNodes>
          <leafValues>
            3.3580023050308228e-01 -1.5660177171230316e-01</leafValues></_>
        <_>
          <internalNodes>
            0 -1 42 9.4910934567451477e-03</internalNodes>
          <leafValues>
            -1.7699350416660309e-01 3.3047029376029968e-01</leafValues></_>
        <_>
          <internalNodes>
            0 -1 395 7.4261859990656376e-03</internalNodes>
          <leafValues>
            -1.0119935125112534e-01 4.5023381710052490e-01</leafValues></_>
        <_>
          <internalNodes>
            0 -1 322 2.0876589696854353e-03</internalNodes>
          <leafValues>
            -1.3698279857635498e-01 3.6986753344535828e-01</leafValues></_>
        <_>
          <internalNodes>
            0 -1 285 8.6048377852421254e-05</internalNodes>
          <leafValues>
            -2.9855701327323914e-01 1.6850800812244415e-01</leafValues></_>
        <_>
          <internalNodes>
            0 -1 298 8.8417364167980850e-05</internalNodes>
          <leafValues>
            1.5712417662143707e-01 -3.3210766315460205e-01</leafValues></_>
        <_>
          <internalNodes>
            0 -1 424 4.8132358642760664e-05</internalNodes>
          <leafValues>
            1.6885462403297424e-01 -2.6705086231231689e-01</leafValues></_>
        <_>
          <internalNodes>
            0 -1 488 2.9610423371195793e-03</internalNodes>
          <leafValues>
            -1.3703989982604980e-01 3.3220711350440979e-01</leafValues></_>
        <_>
          <internalNodes>
            0 -1 175 4.3393572559580207e-04</internalNodes>
          <leafValues>
            1.2313855439424515e-01 -4.5104038715362549e-01</leafValues></_>
        <_>
          <internalNodes>
            0 -1 144 -1.4958108658902347e-04</internalNodes>
          <leafValues>
            1.3561271131038666e-01 -3.5089918971061707e-01</leafValues></_>
        <_>
          <internalNodes>
            0 -1 79 6.9876991212368011e-02</internalNodes>
          <leafValues>
            5.7882651686668396e-02 -7.0973318815231323e-01</leafValues></_>
        <_>
          <internalNodes>
            0 -1 248 1.5062759630382061e-03</internalNodes>
          <leafValues>
            -1.2241498380899429e-01 3.7357831001281738e-01</leafValues></_>
        <_>
          <internalNodes>
            0 -1 112 -4.5048609375953674e-02</internalNodes>
          <leafValues>
            -8.2593816518783569e-01 6.3195526599884033e-02</leafValues></_>
        <_>
          <internalNodes>
            0 -1 455 3.2879780046641827e-03</internalNodes>
          <leafValues>
            -1.5634836256504059e-01 3.3524265885353088e-01</leafValues></_>
        <_>
          <internalNodes>
            0 -1 480 1.1574160453164950e-04</internalNodes>
          <leafValues>
            1.0563778877258301e-01 -4.8007339239120483e-01</leafValues></_>
        <_>
          <internalNodes>
            0 -1 522 -2.3529939353466034e-03</internalNodes>
          <leafValues>
            -5.8357799053192139e-01 8.5503950715065002e-02</leafValues></_>
        <_>
          <internalNodes>
            0 -1 495 1.0647931776475161e-04</internalNodes>
          <leafValues>
            1.7223523557186127e-01 -2.9798817634582520e-01</leafValues></_>
        <_>
          <internalNodes>
            0 -1 490 4.9906140193343163e-03</internalNodes>
          <leafValues>
            -1.3540591299533844e-01 3.3314386010169983e-01</leafValues></_>
        <_>
          <internalNodes>
            0 -1 20 -1.5306861698627472e-01</internalNodes>
          <leafValues>
            4.9830582737922668e-01 -9.3353979289531708e-02</leafValues></_>
        <_>
          <internalNodes>
            0 -1 567 -4.5265615917742252e-03</internalNodes>
          <leafValues>
            3.5518693923950195e-01 -1.4430175721645355e-01</leafValues></_>
        <_>
          <internalNodes>
            0 -1 56 -4.9244593828916550e-03</internalNodes>
          <leafValues>
            2.9782384634017944e-01 -1.7300711572170258e-01</leafValues></_>
        <_>
          <internalNodes>
            0 -1 250 1.0430892929434776e-02</internalNodes>
          <leafValues>
            -1.0076055675745010e-01 5.1180535554885864e-01</leafValues></_>
        <_>
          <internalNodes>
            0 -1 230 -1.6663502901792526e-03</internalNodes>
          <leafValues>
            3.2815507054328918e-01 -1.6897022724151611e-01</leafValues></_>
        <_>
          <internalNodes>
            0 -1 565 6.5990844741463661e-03</internalNodes>
          <leafValues>
            -1.5093159675598145e-01 3.1916120648384094e-01</leafValues></_>
        <_>
          <internalNodes>
            0 -1 476 1.5028627240099013e-04</internalNodes>
          <leafValues>
            1.0842199623584747e-01 -4.5600527524948120e-01</leafValues></_>
        <_>
          <internalNodes>
            0 -1 499 -2.0773680880665779e-03</internalNodes>
          <leafValues>
            4.1066479682922363e-01 -1.2066344916820526e-01</leafValues></_>
        <_>
          <internalNodes>
            0 -1 470 -3.2850217539817095e-03</internalNodes>
          <leafValues>
            -3.9360162615776062e-01 1.2833051383495331e-01</leafValues></_></weakClassifiers></_>
    <!-- stage 17 -->
    <_>
      <maxWeakCount>39</maxWeakCount>
      <stageThreshold>-8.6551898717880249e-01</stageThreshold>
      <weakClassifiers>
        <_>
          <internalNodes>
            0 -1 296 -7.9605859355069697e-05</internalNodes>
          <leafValues>
            5.2043175697326660e-01 7.8698843717575073e-02</leafValues></_>
        <_>
          <internalNodes>
            0 -1 41 -1.1569045484066010e-02</internalNodes>
          <leafValues>
            3.6572492122650146e-01 -1.2520709633827209e-01</leafValues></_>
        <_>
          <internalNodes>
            0 -1 343 1.8125532369595021e-04</internalNodes>
          <leafValues>
            1.9318687915802002e-01 -2.8538531064987183e-01</leafValues></_>
        <_>
          <internalNodes>
            0 -1 312 2.2168979048728943e-03</internalNodes>
          <leafValues>
            -2.9390409588813782e-01 2.7055206894874573e-01</leafValues></_>
        <_>
          <internalNodes>
            0 -1 426 -5.1088649343000725e-05</internalNodes>
          <leafValues>
            -3.0738165974617004e-01 2.3945102095603943e-01</leafValues></_>
        <_>
          <internalNodes>
            0 -1 289 8.3317828830331564e-04</internalNodes>
          <leafValues>
            1.1944778263568878e-01 -4.9781844019889832e-01</leafValues></_>
        <_>
          <internalNodes>
            0 -1 493 7.0316372439265251e-03</internalNodes>
          <leafValues>
            -9.3527525663375854e-02 5.4732090234756470e-01</leafValues></_>
        <_>
